/*!
 * The following copyright notice may not be removed under any circumstances.
 * 
 * Copyright:
 * COPYRIGHT ESSELTE LETRASET LTD., 1990
 */
Cufon.registerFont({"w":819,"face":{"font-family":"Aachen Medium LET","font-weight":500,"font-stretch":"normal","units-per-em":"2048","panose-1":"0 0 0 0 0 0 0 0 0 0","ascent":"1638","descent":"-410","bbox":"-137 -1785 2143 470","underline-thickness":"197","underline-position":"-176","unicode-range":"U+0020-U+F002"},"glyphs":{" ":{"w":437},"\u00d7":{"w":0},"\u00fd":{"w":0},"!":{"d":"158,-139v0,-84,71,-159,157,-156v89,3,153,67,156,156v3,86,-72,157,-156,157v-84,0,-157,-73,-157,-157xm314,-1383v101,-3,180,67,179,161v0,25,-6,63,-13,116r-89,690r-152,0r-96,-737v-32,-143,47,-226,171,-230","w":629},"\"":{"d":"576,-1392v71,0,139,62,133,133v-8,96,-64,192,-91,278r-83,0v-28,-89,-82,-177,-91,-277v-6,-70,60,-134,132,-134xm241,-1392v72,0,139,61,133,133v-8,96,-64,192,-91,278r-83,0v-28,-88,-82,-179,-91,-277v-6,-71,59,-134,132,-134","w":818},"#":{"d":"82,-1351r0,1337r655,0r0,-1337r-655,0xm751,0r-683,0r0,-1365r683,0r0,1365"},"$":{"d":"1028,-406v0,235,-133,376,-333,419r0,94r-268,0r0,-93v-115,-21,-226,-69,-331,-144r0,-344r313,0v-7,136,29,221,153,221v114,0,187,-119,131,-217v-46,-80,-277,-144,-352,-178v-137,-62,-243,-154,-241,-345v2,-223,130,-351,327,-389r0,-95r268,0r0,93v122,21,238,75,314,143r0,324r-305,0r0,-60v2,-92,-58,-146,-148,-146v-114,0,-198,128,-107,203v105,86,347,132,449,215v85,69,129,150,130,299","w":1124},"%":{"d":"1095,-110v127,0,83,-189,83,-315v0,-73,-16,-119,-83,-119v-127,0,-84,189,-84,315v0,75,17,119,84,119xm1349,-580v53,63,36,307,30,415v-2,33,-11,58,-21,75v-39,67,-127,101,-263,101v-166,0,-274,-36,-285,-184v-8,-114,-23,-334,32,-407v43,-57,127,-85,253,-85v123,0,207,29,254,85xm359,-822v127,0,83,-189,83,-314v0,-76,-15,-119,-83,-119v-127,0,-84,189,-84,315v0,75,17,118,84,118xm613,-1291v53,64,36,307,30,415v-2,33,-11,58,-21,75v-39,67,-127,101,-263,101v-167,0,-272,-36,-285,-184v-10,-114,-22,-335,32,-408v42,-56,126,-84,253,-84v125,0,208,29,254,85xm446,0r-215,0r779,-1365r215,0","w":1453},"&":{"d":"408,-452v0,116,57,172,186,166r124,0r0,-332r-124,0v-130,-6,-186,49,-186,166xm562,-1397v194,1,311,51,451,130r0,242r-304,0v-7,-58,-61,-99,-130,-99v-80,0,-149,61,-149,144v0,87,58,139,144,139r144,0r0,-45r295,0r0,45r54,0r0,223r-54,0r0,618r-549,0v-263,2,-382,-131,-382,-396v0,-187,70,-290,211,-338v-126,-57,-189,-157,-189,-298v0,-249,189,-368,458,-365","w":1162},"'":{"d":"241,-1392v72,0,139,61,133,133v-8,96,-64,192,-91,278r-83,0v-28,-88,-82,-179,-91,-277v-6,-71,59,-134,132,-134","w":483},"(":{"d":"555,190v-205,-237,-398,-477,-398,-896v0,-409,193,-656,398,-894r143,98v-182,333,-280,611,-214,1006v38,227,117,404,214,588","w":719},")":{"d":"164,-1600v204,236,398,486,398,894v0,153,-34,303,-100,452v-66,149,-165,297,-298,444r-144,-98r13,-24v171,-295,298,-742,164,-1170v-43,-136,-102,-274,-177,-400","w":719},"*":{"d":"153,-1059r57,-99r-114,0r0,-90r114,0r-57,-99r78,-45r57,100r57,-100r78,45r-57,99r114,0r0,90r-114,0r57,99r-78,45r-57,-99r-57,99","w":576},"+":{"d":"82,-1351r0,1337r655,0r0,-1337r-655,0xm751,0r-683,0r0,-1365r683,0r0,1365"},",":{"d":"249,-278v87,-1,145,68,142,159v-4,138,-95,231,-201,291r-48,-65v49,-36,81,-72,96,-109v-73,-6,-132,-55,-132,-131v0,-84,57,-144,143,-145","w":486},"-":{"d":"96,-631r492,0r0,197r-492,0r0,-197","w":683,"k":{"Y":123,"X":41,"W":41,"V":41,"T":123}},".":{"d":"96,-130v0,-78,68,-148,147,-148v81,0,148,66,148,148v0,79,-68,148,-148,148v-77,0,-147,-71,-147,-148","w":486},"\/":{"d":"273,90r-273,0r751,-1545r273,0","w":1024},"0":{"d":"557,-1119v-114,0,-148,76,-148,209r0,477v-9,122,51,187,148,187v106,0,147,-74,147,-209r0,-477v10,-123,-46,-187,-147,-187xm557,27v-301,0,-461,-115,-461,-420r0,-641v4,-239,158,-358,461,-358v304,0,460,113,460,420r0,641v-8,259,-180,358,-460,358","w":1113},"1":{"d":"460,-358v0,79,5,121,72,134r0,224r-457,0r0,-224v62,-13,72,-55,72,-134r0,-675v0,-69,-18,-94,-72,-108r0,-224r385,0r0,1007","w":600},"2":{"d":"534,-1388v284,0,452,97,452,362v0,139,-14,189,-81,261v-110,118,-306,249,-442,359v-49,40,-71,65,-72,146v100,-8,239,30,266,-53v5,-13,7,-52,7,-117r335,0r0,430r-931,0v12,-199,-41,-439,74,-545v97,-89,272,-220,387,-312v56,-45,95,-75,111,-96v62,-83,-4,-193,-110,-193v-86,0,-140,62,-139,148r0,103r-305,0r0,-367v141,-84,291,-126,448,-126","w":1067},"3":{"d":"508,-1117v-89,0,-145,64,-138,159r-302,0r0,-313v151,-81,303,-121,457,-121v268,0,453,116,455,365v2,191,-97,269,-242,319v165,42,252,138,252,334v0,277,-183,403,-473,401v-152,0,-306,-39,-462,-117r0,-331r315,0v-8,109,42,176,140,176v95,0,148,-69,149,-166v1,-117,-71,-162,-196,-162r-167,0r0,-233r180,0v121,0,182,-53,182,-158v0,-94,-58,-153,-150,-153","w":1058},"4":{"d":"596,-622r0,-381r-252,381r252,0xm524,-224v64,-12,75,-58,72,-139r-555,0r0,-290r472,-712r396,0r0,743r90,0r0,259r-90,0v0,80,4,126,72,139r0,224r-457,0r0,-224","w":1081},"5":{"d":"704,-449v0,-155,-26,-214,-142,-214v-51,0,-93,21,-126,63r-340,0r0,-765r898,0r0,367r-295,0v-3,-69,-39,-103,-109,-103r-180,0r0,244v266,-101,563,-10,609,225v31,157,21,416,-58,509v-83,97,-220,150,-398,150v-202,0,-316,-47,-467,-121r0,-354r313,0v1,103,5,136,61,177v73,54,184,17,214,-45v12,-24,20,-68,20,-133","w":1104},"6":{"d":"558,-631v-118,0,-151,66,-151,193v0,124,33,193,151,193v116,0,151,-68,151,-193v0,-125,-31,-193,-151,-193xm96,-976v-12,-300,154,-416,454,-416v167,0,318,33,454,99r0,286r-302,0v-7,-82,-54,-130,-140,-130v-100,0,-153,72,-153,187r0,136v86,-45,138,-67,255,-68v183,-1,325,86,358,248v22,110,22,367,-22,458v-69,143,-238,203,-450,203v-303,0,-454,-109,-454,-421r0,-582","w":1117},"7":{"d":"510,-1105v-148,-11,-195,46,-180,196r-296,0r0,-456r939,0r0,236r-482,1129r-336,0r470,-1105r-115,0","w":994},"8":{"d":"399,-416v0,125,52,188,156,188v104,0,156,-63,156,-188v0,-125,-52,-188,-156,-188v-104,0,-156,63,-156,188xm413,-968v0,91,55,155,143,155v89,0,144,-64,144,-155v0,-91,-55,-155,-144,-155v-88,0,-143,64,-143,155xm68,-374v0,-188,60,-286,201,-333v-118,-49,-180,-132,-180,-297v0,-291,189,-388,468,-388v279,0,467,101,467,381v0,172,-59,249,-180,304v137,46,202,148,201,329v-2,288,-166,405,-467,405v-323,0,-510,-98,-510,-401","w":1113},"9":{"d":"413,-943v0,106,45,178,148,178v99,0,148,-60,148,-180v0,-117,-39,-184,-148,-184v-107,0,-149,69,-148,186xm709,-577v-122,70,-269,100,-417,45v-162,-61,-210,-165,-210,-408v0,-339,146,-452,489,-452v247,0,410,67,441,253v37,223,10,546,10,799v0,245,-152,367,-445,367v-166,0,-322,-35,-468,-105r0,-317r304,0v-7,99,50,158,144,158v115,0,152,-82,152,-208r0,-132","w":1117},":":{"d":"96,-882v0,-78,70,-147,147,-147v80,0,148,67,148,147v0,79,-68,148,-148,148v-77,0,-147,-71,-147,-148xm391,-130v0,79,-68,148,-148,148v-77,0,-147,-71,-147,-148v0,-78,68,-148,147,-148v81,0,148,66,148,148","w":486},";":{"d":"243,-278v88,-1,145,68,142,159v-4,138,-97,232,-200,291r-48,-65v45,-35,76,-60,95,-109v-75,-6,-131,-55,-131,-131v0,-83,56,-143,142,-145xm96,-882v0,-78,70,-147,147,-147v80,0,148,67,148,147v0,79,-68,148,-148,148v-77,0,-147,-71,-147,-148","w":486},"<":{"d":"776,-1387v87,0,161,74,161,161v0,87,-74,161,-161,161v-87,0,-161,-74,-161,-161v0,-87,74,-161,161,-161xm541,-1164v-102,-19,-140,43,-134,153r521,0r0,677v-1,82,5,111,63,128r0,206r-412,0r0,-206v65,-15,64,-63,63,-149r0,-314v5,-103,-14,-128,-104,-128r-131,0r0,463v0,83,3,110,63,128r0,206r-412,0r0,-206v70,-14,62,-71,63,-158r0,-433r-63,0r0,-214r63,0v1,-137,4,-218,61,-287v72,-86,213,-104,359,-72r0,206","w":1042},"=":{"d":"642,-1365r219,0r-779,1365r-219,0","w":724},">":{"d":"407,-355v0,85,-4,135,63,149r0,206r-412,0r0,-206v70,-14,62,-71,63,-158r0,-433r-63,0r0,-214r63,0v1,-137,4,-218,61,-287v75,-89,234,-106,373,-67r373,0r0,1031v-1,82,5,111,63,128r0,206r-412,0r0,-206v65,-15,64,-63,63,-149r0,-655v5,-114,-26,-156,-122,-159v-96,-3,-115,54,-113,158r116,0r0,214r-116,0r0,442","w":1042},"?":{"d":"279,-139v0,-84,71,-159,157,-156v88,3,155,66,157,156v2,82,-74,157,-157,157v-84,0,-157,-73,-157,-157xm552,-1141v-114,9,-151,67,-145,201r-298,0r0,-318v113,-83,252,-134,436,-134v306,0,459,127,459,382v0,212,-69,271,-209,361r-91,60v-53,43,-125,63,-117,168r-303,0v1,-100,-8,-204,38,-258v81,-95,272,-184,344,-269v67,-79,-5,-201,-114,-193","w":1086},"@":{"d":"82,-1351r0,1337r655,0r0,-1337r-655,0xm751,0r-683,0r0,-1365r683,0r0,1365"},"A":{"d":"422,-582r185,0r-96,-447xm305,-1365r470,0r208,1020v19,76,21,99,78,121r0,224r-465,0r0,-224v96,2,68,-94,53,-161r-264,0v-14,67,-43,165,58,161r0,224r-416,0r0,-224v59,-20,64,-53,79,-129","w":1088,"k":{"\u2019":123,"\u201d":123,"y":20,"Y":102,"W":82,"V":82,"U":41,"T":102,"Q":20,"O":20,"G":20,"C":20}},"B":{"d":"765,-427v3,-129,-71,-173,-204,-164r-108,0r0,327r150,0v114,-3,160,-46,162,-163xm744,-962v1,-111,-63,-144,-181,-139r-110,0r0,277r136,0v105,-1,154,-34,155,-138xm580,-1365v304,-18,473,97,473,367v0,165,-65,265,-195,301v147,33,221,140,221,320v0,198,-71,337,-241,364v-213,33,-526,7,-770,13r0,-224v62,-13,72,-55,72,-134r0,-675v0,-69,-18,-94,-72,-108r0,-224r512,0","w":1161,"k":{"Y":41,"W":41,"V":41,"T":20,"A":20}},"C":{"d":"557,-251v106,0,160,-74,147,-209r0,-86r296,0r0,465v-117,60,-285,108,-449,108v-256,0,-455,-100,-455,-358r0,-707v4,-236,157,-354,458,-354v183,0,303,36,446,94r0,385r-296,0v12,-136,-38,-206,-147,-206v-114,0,-148,75,-148,209r0,450v-11,139,41,209,148,209","w":1081},"D":{"d":"735,-916v11,-141,-51,-190,-197,-181r-85,0r0,829v142,2,282,9,282,-134r0,-514xm140,-1007v3,-78,-10,-123,-72,-134r0,-224r537,0v234,-9,362,79,416,236v59,172,27,458,27,685v0,177,-26,261,-119,347v-88,81,-193,97,-366,97r-495,0r0,-224v62,-13,72,-55,72,-134r0,-649","w":1144,"k":{"Y":27,"W":20,"V":20,"A":20}},"E":{"d":"613,-268v121,7,128,-71,127,-188r295,0r0,456r-967,0r0,-224v62,-13,72,-55,72,-134r0,-675v0,-69,-18,-94,-72,-108r0,-224r967,0r0,421r-295,0v4,-118,-34,-153,-152,-153r-135,0r0,273r381,0r0,233r-381,0r0,323r160,0","w":1117},"F":{"d":"453,-358v0,79,5,121,72,134r0,224r-457,0r0,-224v62,-13,72,-55,72,-134r0,-675v0,-69,-18,-94,-72,-108r0,-224r940,0r0,421r-277,0v4,-116,-34,-152,-153,-152r-125,0r0,268r358,0r0,233r-358,0r0,237","w":1063,"k":{"r":27,"o":102,"e":102,"a":102,"S":41,"O":20,"G":20,"C":20,"A":143,".":205,"-":123,",":205}},"G":{"d":"557,-251v96,0,156,-61,147,-182r0,-68r-125,0r0,-215r421,0r0,613v-146,86,-245,129,-452,130v-293,2,-452,-120,-452,-420r0,-645v4,-236,157,-354,460,-354v151,0,299,33,444,99r0,362r-296,0v5,-120,-42,-188,-147,-188v-114,0,-148,75,-148,209r0,482v-3,118,50,177,148,177","w":1081},"H":{"d":"453,-358v0,79,5,121,72,134r0,224r-457,0r0,-224v62,-13,72,-55,72,-134r0,-675v0,-69,-18,-94,-72,-108r0,-224r457,0r0,224v-62,11,-72,57,-72,134r0,188r296,0r0,-214v-3,-72,-15,-94,-72,-108r0,-224r456,0r0,224v-64,12,-71,56,-71,134r0,675v3,70,14,92,71,108r0,224r-456,0r0,-224v62,-13,72,-55,72,-134r0,-228r-296,0r0,228","w":1202},"I":{"d":"453,-358v0,79,5,121,72,134r0,224r-457,0r0,-224v62,-13,72,-55,72,-134r0,-675v0,-69,-18,-94,-72,-108r0,-224r457,0r0,224v-62,11,-72,57,-72,134r0,649","w":593},"J":{"d":"470,-337v14,227,-87,346,-284,346v-57,0,-115,-10,-172,-31r0,-202v118,18,143,-42,143,-166r0,-643v0,-70,-18,-94,-72,-108r0,-224r457,0r0,224v-62,11,-72,57,-72,134r0,670","w":603,"k":{"a":27,"A":41}},"K":{"d":"453,-358v0,79,5,121,72,134r0,224r-457,0r0,-224v62,-13,72,-55,72,-134r0,-675v0,-69,-18,-94,-72,-108r0,-224r457,0r0,224v-62,11,-72,57,-72,134r0,237r150,-232v57,-87,66,-96,65,-232r0,-131r385,0r0,219v-66,14,-71,35,-111,97r-182,284r222,423v40,69,45,95,107,118r0,224r-425,0v-2,-86,6,-201,-7,-273v-53,-128,-141,-265,-204,-389r0,304","w":1116,"k":{"y":41,"w":41,"O":27,"G":27,"C":27,"-":82}},"L":{"d":"453,-268v132,-2,264,25,264,-116r0,-234r278,0r0,618r-927,0r0,-224v62,-13,72,-55,72,-134r0,-675v0,-69,-18,-94,-72,-108r0,-224r457,0r0,224v-62,11,-72,57,-72,134r0,739","w":1049,"k":{"y":41,"Y":123,"W":102,"V":102,"T":205}},"M":{"d":"399,-358v0,79,5,121,72,134r0,224r-403,0r0,-224v62,-13,72,-55,72,-134r0,-675v0,-69,-18,-94,-72,-108r0,-224r515,0r157,649r156,-649r492,0r0,224v-64,12,-71,56,-71,134r0,675v3,70,14,92,71,108r0,224r-456,0r0,-224v64,-13,72,-55,72,-134r0,-537r-233,895r-148,0r-224,-895r0,537","w":1457},"N":{"d":"426,-358v0,79,5,121,72,134r0,224r-430,0r0,-224v62,-13,72,-55,72,-134r0,-675v0,-69,-18,-94,-72,-108r0,-224r358,0r349,703r0,-371v0,-72,-16,-94,-71,-108r0,-224r434,0r0,224v-62,11,-72,57,-72,134r0,1007r-286,0r-354,-716r0,358","w":1203},"O":{"d":"557,-1119v-104,0,-148,63,-148,182r0,504v-9,122,51,187,148,187v96,0,147,-60,147,-182r0,-504v10,-123,-46,-187,-147,-187xm1017,-1034r0,703v5,203,-105,288,-256,334v-58,17,-126,24,-204,24v-218,0,-374,-63,-437,-208v-17,-40,-24,-90,-24,-150r0,-703v-6,-205,107,-290,259,-335v57,-17,125,-23,202,-23v217,0,371,62,436,204v18,39,24,91,24,154","w":1113,"k":{"Y":27,"W":20,"V":20,"A":20}},"P":{"d":"740,-892v1,-135,-34,-183,-166,-180r-121,0r0,358r138,0v119,-2,148,-52,149,-178xm453,-421v2,93,-15,188,72,197r0,224r-457,0r0,-224v62,-13,72,-55,72,-134r0,-675v0,-69,-18,-94,-72,-108r0,-224r580,0v236,-7,348,94,393,274v16,60,15,316,3,382v-37,204,-181,301,-440,288r-151,0","w":1107,"k":{"a":41,"A":82,".":205,",":205}},"Q":{"d":"557,-1119v-114,0,-148,76,-148,209r0,477v-9,122,51,187,148,187v106,0,147,-74,147,-209r0,-477v10,-123,-46,-187,-147,-187xm921,155v-64,-25,-194,-96,-236,-137v-251,32,-494,-22,-565,-199v-21,-53,-24,-132,-24,-212r0,-641v-6,-205,107,-290,259,-335v57,-17,125,-23,202,-23v217,0,370,62,436,204v24,51,24,135,24,216r0,641v-1,99,-24,173,-68,223v15,13,46,34,92,62","w":1113,"k":{"A":20}},"R":{"d":"743,-949v2,-138,-66,-161,-208,-161r-82,0r0,327r108,0v137,1,180,-37,182,-166xm453,-358v0,79,5,121,72,134r0,224r-457,0r0,-224v62,-13,72,-55,72,-134r0,-675v0,-69,-18,-94,-72,-108r0,-224r578,0v288,-1,410,125,410,390v0,189,-66,279,-216,320v125,19,184,71,186,205r-2,108v1,71,13,95,60,120r0,222r-342,0v-32,-79,-24,-241,-25,-364v0,-139,-23,-176,-148,-177r-116,0r0,183","w":1159,"k":{"a":27,"Y":41,"W":27,"V":27,"T":20}},"S":{"d":"556,-1392v175,0,344,64,439,151r0,324r-304,0r0,-60v2,-92,-58,-146,-149,-146v-113,0,-193,124,-108,202v47,43,178,87,257,117v122,47,207,98,254,155v47,57,70,138,70,243v0,282,-182,432,-468,432v-165,0,-320,-52,-465,-156r0,-344r313,0v-6,146,32,215,154,221v114,6,186,-119,130,-217v-46,-80,-277,-144,-352,-178v-137,-62,-244,-154,-241,-345v5,-273,186,-399,470,-399","w":1097},"T":{"d":"732,-358v0,79,5,121,72,134r0,224r-456,0r0,-224v64,-12,71,-55,71,-134r0,-752v-94,5,-123,57,-123,159r0,141r-255,0r0,-555r1070,0r0,555r-256,0v-3,-139,28,-303,-123,-300r0,752","w":1152,"k":{"a":41,"A":102,".":164,"-":123,",":164}},"U":{"d":"126,-1007v2,-77,-7,-123,-71,-134r0,-224r456,0r0,224v-64,12,-71,55,-71,134r0,572v-8,116,50,178,147,180v104,2,148,-69,148,-194r0,-582v0,-72,-16,-97,-72,-110r0,-224r416,0r0,224v-63,12,-71,58,-71,134r0,570v9,233,-54,335,-201,408v-67,33,-146,47,-235,47v-265,2,-445,-131,-446,-385r0,-640","w":1134,"k":{"A":41,";":61,":":61,".":123,",":123}},"V":{"d":"645,-1365r416,0r0,224v-59,17,-62,53,-76,122r-197,1019r-470,0r-214,-1029v-18,-70,-15,-100,-77,-112r0,-224r466,0r0,224v-76,-4,-74,64,-61,127r146,683r134,-688v18,-78,11,-116,-67,-122r0,-224","w":1088,"k":{"y":41,"u":41,"o":61,"i":27,"e":61,"a":82,"O":20,"A":82,".":164,"-":41,",":164}},"W":{"d":"1108,-459r92,-565v12,-61,7,-117,-54,-117r0,-224r398,0r0,224v-70,15,-67,48,-81,134r-165,1007r-371,0r-139,-658r-116,658r-381,0r-194,-1064v-10,-49,-33,-74,-70,-77r0,-224r457,0r0,224v-76,-11,-67,70,-55,138r98,544r156,-906r266,0","w":1572,"k":{"y":41,"u":61,"r":61,"o":61,"i":27,"e":61,"a":82,"O":27,"A":82,".":164,"-":41,",":164}},"X":{"d":"367,0r-340,0r0,-224v24,-8,45,-30,63,-65r230,-445r-191,-337v-21,-35,-29,-59,-66,-70r0,-224r385,0v3,72,-10,156,8,214v16,53,68,136,97,190r56,-110v38,-79,45,-80,45,-180r0,-114r331,0r0,224v-39,13,-48,29,-69,70r-204,395r197,358v29,52,59,83,89,94r0,224r-407,0v-3,-125,6,-251,-43,-333r-71,-120r-73,141v-33,72,-36,65,-37,155r0,157","w":1026,"k":{"y":41,"-":41}},"Y":{"d":"681,-363v0,80,4,126,71,139r0,224r-456,0r0,-224v63,-13,71,-53,71,-132r0,-168r-255,-523v-25,-52,-37,-84,-85,-98r0,-220r408,0v7,120,-18,230,26,321r88,183v35,-78,87,-160,114,-242v8,-67,3,-183,4,-262r354,0r0,224v-50,13,-64,56,-90,107r-250,497r0,174","w":1048,"k":{"v":61,"u":61,"o":102,"e":102,"a":102,"O":27,"G":27,"C":27,"A":102,";":41,":":41,".":164,"-":123,",":164}},"Z":{"d":"553,-273v133,4,164,-44,158,-175r275,0r0,448r-931,0r0,-201r526,-904r-155,0v-97,-5,-116,89,-108,201r-254,0r0,-461r913,0r0,201r-517,891r93,0","w":1040,"k":{"y":41}},"[":{"d":"657,188r-466,0r0,-1741r466,0r0,179r-180,0r0,1383r180,0r0,179","w":719},"\\":{"d":"273,-1455r751,1545r-273,0r-751,-1545r273,0","w":1024},"]":{"d":"528,-1553r0,1741r-466,0r0,-179r179,0r0,-1383r-179,0r0,-179r466,0","w":719},"^":{"d":"82,-1351r0,1337r655,0r0,-1337r-655,0xm751,0r-683,0r0,-1365r683,0r0,1365"},"_":{"d":"0,273r1024,0r0,197r-1024,0r0,-197","w":1024},"`":{"d":"298,-1131r-161,-243r214,0r78,243r-131,0","w":565},"a":{"d":"441,-206v62,-3,118,-52,156,-94r0,-165r-149,75v-55,29,-83,65,-83,107v-1,44,33,79,76,77xm497,-837v-78,0,-111,62,-101,152r-286,0r0,-246v176,-95,494,-164,673,-32v73,54,101,119,101,245r0,417v1,67,12,78,63,95r0,206r-336,0r0,-98v-98,72,-146,113,-283,116v-168,3,-272,-108,-272,-277v0,-285,319,-316,541,-403v-1,-106,-5,-175,-100,-175","w":990,"k":{"y":27,"w":27,"v":27}},"b":{"d":"666,-624v10,-111,-36,-186,-134,-186v-47,0,-94,16,-139,47r0,522v41,29,86,44,134,44v114,1,139,-73,139,-197r0,-230xm107,-1010v1,-79,3,-138,-63,-149r0,-206r349,0r0,409v87,-47,131,-72,247,-73v193,-2,313,112,313,312r0,415v-2,116,-37,179,-107,230v-84,61,-191,90,-319,90v-190,0,-273,-49,-420,-122r0,-906","w":1021},"c":{"d":"68,-648v-20,-266,142,-381,397,-381v146,0,279,37,400,112r0,281r-268,0v7,-110,-24,-188,-122,-188v-94,1,-120,75,-120,179r0,308v1,90,36,148,121,149v110,1,129,-101,121,-224r268,0r0,318v-158,132,-550,159,-710,17v-69,-61,-87,-133,-87,-260r0,-311","w":933},"d":{"d":"355,-352v-4,94,35,152,125,151v46,0,95,-19,148,-56r0,-507v-49,-31,-95,-46,-138,-46v-99,0,-135,74,-135,186r0,272xm628,-955v-3,-91,19,-192,-63,-204r0,-206r349,0r0,1054v1,70,11,86,63,105r0,206r-349,0r0,-65v-152,106,-362,118,-486,-2v-61,-59,-74,-102,-74,-221r0,-437v-2,-198,112,-304,302,-304v113,0,163,30,258,74","w":1028},"e":{"d":"475,-824v-97,0,-128,87,-120,197r241,0v7,-112,-20,-198,-121,-197xm883,-96v-158,101,-406,158,-615,80v-137,-51,-209,-126,-200,-321v9,-196,-32,-442,59,-562v94,-123,374,-169,557,-96v136,54,199,115,199,320r0,227r-528,0r0,106v0,103,40,154,120,154v86,0,124,-60,121,-152r287,0r0,244","w":951},"f":{"d":"407,-355v0,85,-4,135,63,149r0,206r-412,0r0,-206v70,-14,62,-71,63,-158r0,-433r-63,0r0,-214r63,0v1,-137,4,-218,61,-287v72,-86,213,-104,359,-72r0,206v-102,-19,-140,43,-134,153r116,0r0,214r-116,0r0,442","w":541,"k":{"\u2019":-20,"\u201d":-20,"a":20}},"g":{"d":"355,-388v-17,179,153,204,273,117r0,-483v-53,-37,-102,-56,-145,-56v-90,1,-128,60,-128,170r0,252xm379,-1029v119,0,161,36,249,89r0,-71r349,0r0,205v-64,14,-63,68,-63,149r0,709v-1,115,-23,170,-87,226v-77,66,-183,98,-318,98v-172,0,-264,-44,-396,-108r0,-232r279,0v1,87,40,130,119,130v122,0,121,-117,117,-243v-95,48,-180,72,-256,72v-189,0,-304,-109,-304,-328r0,-415v1,-195,125,-281,311,-281","w":1028},"h":{"d":"400,-355v0,80,-6,136,63,149r0,206r-412,0r0,-206v69,-20,63,-56,63,-149r0,-676v-3,-87,1,-108,-63,-128r0,-206r349,0r0,411v69,-44,163,-76,250,-76v199,0,296,113,296,322r0,406v1,64,14,85,67,96r0,206r-331,0v-42,-182,-22,-434,-22,-655v0,-104,-33,-158,-128,-160v-41,0,-85,17,-132,50r0,410","w":1057,"k":{"y":20,"w":20,"v":20}},"i":{"d":"407,-355v-1,85,-2,135,63,149r0,206r-412,0r0,-206v65,-15,64,-63,63,-149r0,-323v-3,-88,0,-105,-63,-128r0,-205r349,0r0,656xm255,-1387v87,0,161,74,161,161v0,87,-74,161,-161,161v-87,0,-161,-74,-161,-161v0,-87,74,-161,161,-161","w":521},"j":{"d":"254,-1387v87,0,161,74,161,161v0,87,-74,161,-161,161v-87,0,-161,-74,-161,-161v0,-87,74,-161,161,-161xm120,-657v-3,-90,6,-131,-63,-149r0,-205r349,0r0,1063v-2,124,-6,162,-55,228v-64,86,-187,97,-334,80r0,-209v84,11,103,-40,103,-137r0,-671","w":521},"k":{"d":"400,-483v10,106,-35,265,63,277r0,206r-412,0r0,-206v63,-23,63,-38,63,-128r0,-697v-3,-87,1,-108,-63,-128r0,-206r349,0r0,695v50,-65,161,-142,161,-232r0,-109r363,0r0,201v-73,19,-83,39,-140,103r-107,121r134,247v38,69,83,114,135,133r0,206r-249,0v-111,-133,-202,-328,-297,-483","w":974,"k":{"-":82}},"l":{"d":"400,-355v-1,85,-2,135,63,149r0,206r-412,0r0,-206v65,-15,64,-63,63,-149r0,-676v-3,-88,0,-105,-63,-128r0,-206r349,0r0,1010","w":514},"m":{"d":"121,-657v1,-81,3,-136,-63,-149r0,-205r340,0r0,70v133,-113,339,-122,473,11v206,-175,574,-110,574,177r0,454v1,59,16,82,63,93r0,206r-327,0v-27,-73,-22,-125,-22,-236r0,-393v4,-120,-24,-177,-122,-177v-34,0,-71,12,-111,36r0,471v1,59,16,82,63,93r0,206r-327,0v-22,-61,-23,-134,-22,-222r0,-436v9,-157,-131,-178,-233,-112r0,415v3,91,-6,131,63,149r0,206r-412,0r0,-206v64,-14,63,-68,63,-149r0,-302","w":1551,"k":{"y":20,"w":20,"v":20}},"n":{"d":"407,-355v0,80,-6,136,63,149r0,206r-412,0r0,-206v69,-20,63,-56,63,-149r0,-323v-3,-88,0,-105,-63,-128r0,-205r340,0r0,67v91,-54,138,-85,259,-86v199,-2,296,114,296,322r0,406v1,64,14,85,67,96r0,206r-331,0v-41,-177,-22,-422,-22,-638v0,-122,-27,-177,-127,-177v-41,0,-86,18,-133,54r0,406","w":1063,"k":{"\u2019":123,"y":20,"w":20,"v":20}},"o":{"d":"475,-188v92,0,121,-76,121,-178r0,-308v1,-90,-37,-150,-121,-150v-90,0,-120,78,-120,179r0,308v1,99,41,149,120,149xm871,-811v33,121,12,325,12,474v0,120,-13,159,-61,225v-89,123,-371,167,-550,96v-133,-53,-204,-130,-204,-321r0,-338v-8,-258,160,-350,408,-354v201,-3,354,70,395,218","w":951},"p":{"d":"673,-658v7,-96,-37,-152,-127,-152v-43,0,-91,19,-146,56r0,509v51,29,96,44,134,44v108,-1,139,-79,139,-205r0,-252xm400,-53v2,90,-16,191,63,201r0,206r-412,0r0,-206v67,-15,63,-63,63,-149r0,-679v-3,-86,0,-106,-63,-126r0,-205r349,0r0,69v66,-46,160,-91,250,-88v174,6,310,94,310,298r0,445v-1,118,-24,173,-87,232v-54,50,-128,73,-219,73v-117,-1,-154,-30,-254,-71","w":1028},"q":{"d":"355,-406v-6,123,27,205,139,205v40,0,85,-15,134,-44r0,-509v-55,-35,-76,-55,-146,-56v-86,-2,-127,57,-127,152r0,252xm914,-1v-1,81,-2,135,63,149r0,206r-412,0r0,-206v80,-13,61,-109,63,-201v-88,39,-144,71,-254,71v-208,0,-306,-121,-306,-357r0,-391v3,-109,20,-164,81,-218v61,-54,137,-82,230,-82v112,0,174,40,249,88r0,-69r286,0r0,1010","w":1021},"r":{"d":"407,-355v-1,85,-2,136,63,149r0,206r-412,0r0,-206v67,-16,63,-63,63,-149r0,-323v-3,-88,0,-105,-63,-128r0,-205r336,0r0,83v41,-68,111,-113,206,-83r0,295v-133,-26,-193,45,-193,194r0,167","w":600},"s":{"d":"55,-711v0,-221,162,-316,394,-318v107,-1,252,37,375,89r0,255r-264,0v2,-87,-24,-130,-104,-134v-102,-5,-128,130,-49,176v66,38,321,89,378,160v36,45,61,104,61,189v0,211,-126,316,-377,316v-160,1,-292,-42,-414,-80r0,-273r282,0v-1,89,18,139,103,139v53,1,100,-38,98,-93v0,-31,-10,-57,-33,-72v-81,-55,-294,-90,-368,-156v-53,-47,-82,-111,-82,-198","w":901},"t":{"d":"502,-9v-240,76,-407,-39,-407,-312r0,-476r-54,0r0,-214r54,0r0,-188r286,-85r0,273r116,0r0,214r-116,0r0,447v2,104,38,152,121,140r0,201","w":526},"u":{"d":"656,-657v0,-79,8,-138,-62,-149r0,-205r349,0r0,677v0,83,2,110,62,128r0,206r-340,0r0,-67v-81,57,-168,85,-259,85v-201,-1,-296,-112,-296,-322r0,-407v0,-65,-14,-83,-67,-95r0,-205r331,0v44,171,23,423,23,637v0,124,30,177,126,177v43,0,87,-18,133,-54r0,-406","w":1063},"v":{"d":"551,-1011r371,0r0,205v-49,18,-50,31,-68,93r-205,713r-358,0r-221,-740v-13,-39,-16,-54,-56,-66r0,-205r402,0r0,205v-49,9,-47,56,-35,102r100,373r96,-374v14,-56,20,-81,-26,-101r0,-205","w":936,"k":{"a":27,".":123,",":123}},"w":{"d":"971,-1011r376,0r0,205v-49,17,-56,31,-71,87r-197,719r-273,0r-93,-333v-8,-29,-20,-80,-35,-151v-13,62,-25,112,-36,151r-91,333r-269,0r-204,-719v-18,-54,-17,-69,-64,-87r0,-205r402,0r0,205v-47,13,-44,59,-34,103r63,289r161,-597r179,0r146,597r70,-305v12,-46,9,-68,-30,-87r0,-205","w":1361,"k":{"a":27,".":123,",":123}},"x":{"d":"524,-121v1,-113,-48,-124,-101,-206v-45,59,-100,101,-100,203r0,124r-296,0r0,-206v16,-6,37,-24,63,-54r207,-243r-193,-246v-23,-29,-43,-48,-61,-57r0,-205r351,0v4,100,-18,174,39,236r50,65v24,-33,70,-88,85,-119v9,-44,3,-126,5,-182r282,0r0,205v-25,9,-50,28,-74,57r-175,212r198,277v24,30,34,47,74,54r0,206r-354,0r0,-121","w":905,"k":{"-":41}},"y":{"d":"546,-1011r372,0r0,205v-49,22,-53,40,-71,105r-191,684v-61,207,-120,367,-364,371v-28,0,-61,-3,-99,-9r0,-220v79,2,110,-30,136,-90r-252,-755v-17,-51,-23,-69,-63,-86r0,-205r398,0r0,205v-49,13,-45,47,-32,96r102,386r98,-396v10,-40,3,-73,-34,-86r0,-205","w":931,"k":{"a":27,".":123,",":123}},"z":{"d":"404,-197v143,7,259,-6,241,-152r242,0r0,349r-832,0r0,-197r470,-617r-102,0v-95,0,-129,33,-127,129r-241,0r0,-326r832,0r0,179","w":942,"k":{"-":82}},"{":{"d":"82,-1351r0,1337r655,0r0,-1337r-655,0xm751,0r-683,0r0,-1365r683,0r0,1365"},"|":{"d":"82,-1351r0,1337r655,0r0,-1337r-655,0xm751,0r-683,0r0,-1365r683,0r0,1365"},"}":{"d":"82,-1351r0,1337r655,0r0,-1337r-655,0xm751,0r-683,0r0,-1365r683,0r0,1365"},"~":{"d":"82,-1351r0,1337r655,0r0,-1337r-655,0xm751,0r-683,0r0,-1365r683,0r0,1365"},"\u00c4":{"d":"422,-582r185,0r-96,-447xm305,-1365r470,0r208,1020v19,76,21,99,78,121r0,224r-465,0r0,-224v96,2,68,-94,53,-161r-264,0v-14,67,-43,165,58,161r0,224r-416,0r0,-224v59,-20,64,-53,79,-129xm365,-1737v65,0,118,52,118,116v0,64,-53,117,-117,117v-62,0,-117,-54,-117,-117v0,-62,54,-116,116,-116xm714,-1733v66,0,118,52,118,117v0,65,-53,118,-118,118v-61,0,-117,-56,-117,-118v0,-64,53,-117,117,-117","w":1088},"\u00c5":{"d":"422,-582r185,0r-96,-447xm305,-1365r470,0r208,1020v19,76,21,99,78,121r0,224r-465,0r0,-224v96,2,68,-94,53,-161r-264,0v-14,67,-43,165,58,161r0,224r-416,0r0,-224v59,-20,64,-53,79,-129xm541,-1545v36,0,70,-34,70,-70v0,-36,-32,-71,-70,-71v-37,0,-69,35,-69,70v0,36,32,71,69,71xm541,-1785v100,0,168,70,170,170v2,93,-77,169,-170,169v-88,0,-171,-81,-168,-170v4,-98,67,-169,168,-169","w":1088},"\u00c7":{"d":"557,-251v106,0,160,-74,147,-209r0,-86r296,0r0,465v-105,54,-252,97,-394,106r0,53v95,-4,128,43,128,150v0,173,-182,176,-296,115r0,-117r112,0v5,35,-4,70,29,72v33,2,24,-54,27,-89v6,-64,-62,-39,-114,-44r0,-140v-208,-25,-377,-95,-393,-312v-2,-26,-3,-136,-3,-195r0,-509v-16,-301,170,-401,458,-401v183,0,303,36,446,94r0,385r-296,0v12,-136,-38,-206,-147,-206v-104,0,-148,59,-148,181r0,509v-8,115,52,178,148,178","w":1081},"\u00c9":{"d":"613,-268v121,7,128,-71,127,-188r295,0r0,456r-967,0r0,-224v62,-13,72,-55,72,-134r0,-675v0,-69,-18,-94,-72,-108r0,-224r967,0r0,421r-295,0v4,-118,-34,-153,-152,-153r-135,0r0,273r381,0r0,233r-381,0r0,323r160,0xm551,-1764r214,0r-162,243r-130,0","w":1117},"\u00d1":{"d":"426,-358v0,79,5,121,72,134r0,224r-430,0r0,-224v62,-13,72,-55,72,-134r0,-675v0,-69,-18,-94,-72,-108r0,-224r358,0r349,703r0,-371v0,-72,-16,-94,-71,-108r0,-224r434,0r0,224v-62,11,-72,57,-72,134r0,1007r-286,0r-354,-716r0,358xm479,-1709v36,-2,181,49,214,49v31,0,51,-14,62,-43r127,0v-13,121,-64,182,-152,182v-17,7,-174,-46,-222,-46v-31,0,-50,14,-58,43r-128,0v6,-104,55,-180,157,-185","w":1203},"\u00d6":{"d":"557,-1119v-104,0,-148,63,-148,182r0,504v-9,122,51,187,148,187v96,0,147,-60,147,-182r0,-504v10,-123,-46,-187,-147,-187xm1017,-1034r0,703v5,203,-105,288,-256,334v-58,17,-126,24,-204,24v-218,0,-374,-63,-437,-208v-17,-40,-24,-90,-24,-150r0,-703v-6,-205,107,-290,259,-335v57,-17,125,-23,202,-23v217,0,371,62,436,204v18,39,24,91,24,154xm383,-1732v65,0,118,52,118,116v0,64,-53,117,-117,117v-62,0,-117,-54,-117,-117v0,-62,54,-116,116,-116xm732,-1728v66,0,118,52,118,117v0,65,-53,118,-118,118v-61,0,-117,-56,-117,-118v0,-64,53,-117,117,-117","w":1113},"\u00dc":{"d":"126,-1007v2,-77,-7,-123,-71,-134r0,-224r456,0r0,224v-64,12,-71,55,-71,134r0,572v-8,116,50,178,147,180v104,2,148,-69,148,-194r0,-582v0,-72,-16,-97,-72,-110r0,-224r416,0r0,224v-63,12,-71,58,-71,134r0,570v9,233,-54,335,-201,408v-67,33,-146,47,-235,47v-265,2,-445,-131,-446,-385r0,-640xm393,-1732v65,0,118,52,118,116v0,64,-53,117,-117,117v-62,0,-117,-54,-117,-117v0,-62,54,-116,116,-116xm742,-1728v66,0,118,52,118,117v0,65,-53,118,-118,118v-61,0,-117,-56,-117,-118v0,-64,53,-117,117,-117","w":1134},"\u00e1":{"d":"441,-206v62,-3,118,-52,156,-94r0,-165r-149,75v-55,29,-83,65,-83,107v-1,44,33,79,76,77xm497,-837v-78,0,-111,62,-101,152r-286,0r0,-246v176,-95,494,-164,673,-32v73,54,101,119,101,245r0,417v1,67,12,78,63,95r0,206r-336,0r0,-98v-98,72,-146,113,-283,116v-168,3,-272,-108,-272,-277v0,-285,319,-316,541,-403v-1,-106,-5,-175,-100,-175xm536,-1374r214,0r-162,243r-130,0","w":990},"\u00e0":{"d":"441,-206v62,-3,118,-52,156,-94r0,-165r-149,75v-55,29,-83,65,-83,107v-1,44,33,79,76,77xm497,-837v-78,0,-111,62,-101,152r-286,0r0,-246v176,-95,494,-164,673,-32v73,54,101,119,101,245r0,417v1,67,12,78,63,95r0,206r-336,0r0,-98v-98,72,-146,113,-283,116v-168,3,-272,-108,-272,-277v0,-285,319,-316,541,-403v-1,-106,-5,-175,-100,-175xm461,-1131r-161,-243r214,0r78,243r-131,0","w":990},"\u00e2":{"d":"441,-206v62,-3,118,-52,156,-94r0,-165r-149,75v-55,29,-83,65,-83,107v-1,44,33,79,76,77xm497,-837v-78,0,-111,62,-101,152r-286,0r0,-246v176,-95,494,-164,673,-32v73,54,101,119,101,245r0,417v1,67,12,78,63,95r0,206r-336,0r0,-98v-98,72,-146,113,-283,116v-168,3,-272,-108,-272,-277v0,-285,319,-316,541,-403v-1,-106,-5,-175,-100,-175xm411,-1372r205,0r154,241r-163,0r-99,-156r-97,156r-160,0","w":990},"\u00e4":{"d":"441,-206v62,-3,118,-52,156,-94r0,-165r-149,75v-55,29,-83,65,-83,107v-1,44,33,79,76,77xm497,-837v-78,0,-111,62,-101,152r-286,0r0,-246v176,-95,494,-164,673,-32v73,54,101,119,101,245r0,417v1,67,12,78,63,95r0,206r-336,0r0,-98v-98,72,-146,113,-283,116v-168,3,-272,-108,-272,-277v0,-285,319,-316,541,-403v-1,-106,-5,-175,-100,-175xm314,-1370v65,0,118,52,118,116v0,64,-53,117,-117,117v-62,0,-117,-54,-117,-117v0,-62,54,-116,116,-116xm663,-1366v66,0,118,52,118,117v0,65,-53,118,-118,118v-61,0,-117,-56,-117,-118v0,-64,53,-117,117,-117","w":990},"\u00e3":{"d":"441,-206v62,-3,118,-52,156,-94r0,-165r-149,75v-55,29,-83,65,-83,107v-1,44,33,79,76,77xm497,-837v-78,0,-111,62,-101,152r-286,0r0,-246v176,-95,494,-164,673,-32v73,54,101,119,101,245r0,417v1,67,12,78,63,95r0,206r-336,0r0,-98v-98,72,-146,113,-283,116v-168,3,-272,-108,-272,-277v0,-285,319,-316,541,-403v-1,-106,-5,-175,-100,-175xm405,-1345v36,-2,181,49,214,49v31,0,51,-14,62,-43r127,0v-13,121,-64,182,-152,182v-17,7,-174,-46,-222,-46v-31,0,-50,14,-58,43r-128,0v6,-104,55,-180,157,-185","w":990},"\u00e5":{"d":"441,-206v62,-3,118,-52,156,-94r0,-165r-149,75v-55,29,-83,65,-83,107v-1,44,33,79,76,77xm497,-837v-78,0,-111,62,-101,152r-286,0r0,-246v176,-95,494,-164,673,-32v73,54,101,119,101,245r0,417v1,67,12,78,63,95r0,206r-336,0r0,-98v-98,72,-146,113,-283,116v-168,3,-272,-108,-272,-277v0,-285,319,-316,541,-403v-1,-106,-5,-175,-100,-175xm505,-1182v36,0,70,-34,70,-70v0,-36,-32,-71,-70,-71v-37,0,-69,35,-69,70v0,36,32,71,69,71xm505,-1422v100,0,168,70,170,170v2,93,-77,169,-170,169v-88,0,-171,-81,-168,-170v4,-98,67,-169,168,-169","w":990},"\u00e7":{"d":"476,-188v110,1,129,-101,121,-224r268,0r0,318v-94,69,-214,106,-363,111r0,53v93,-2,108,40,114,135v10,155,-165,159,-265,104r0,-106r100,0v5,42,-4,62,26,66v31,4,22,-49,25,-81v6,-59,-57,-33,-103,-39r0,-134v-210,-23,-331,-118,-331,-352r0,-375v2,-214,166,-317,397,-317v146,0,279,37,400,112r0,281r-268,0v7,-110,-24,-188,-122,-188v-94,1,-120,75,-120,179r0,308v1,90,36,148,121,149","w":933},"\u00e9":{"d":"475,-824v-97,0,-128,87,-120,197r241,0v7,-112,-20,-198,-121,-197xm883,-96v-158,101,-406,158,-615,80v-137,-51,-209,-126,-200,-321v9,-196,-32,-442,59,-562v94,-123,374,-169,557,-96v136,54,199,115,199,320r0,227r-528,0r0,106v0,103,40,154,120,154v86,0,124,-60,121,-152r287,0r0,244xm487,-1374r214,0r-162,243r-130,0","w":951},"\u00e8":{"d":"475,-824v-97,0,-128,87,-120,197r241,0v7,-112,-20,-198,-121,-197xm883,-96v-158,101,-406,158,-615,80v-137,-51,-209,-126,-200,-321v9,-196,-32,-442,59,-562v94,-123,374,-169,557,-96v136,54,199,115,199,320r0,227r-528,0r0,106v0,103,40,154,120,154v86,0,124,-60,121,-152r287,0r0,244xm422,-1131r-161,-243r214,0r78,243r-131,0","w":951},"\u00ea":{"d":"475,-824v-97,0,-128,87,-120,197r241,0v7,-112,-20,-198,-121,-197xm883,-96v-158,101,-406,158,-615,80v-137,-51,-209,-126,-200,-321v9,-196,-32,-442,59,-562v94,-123,374,-169,557,-96v136,54,199,115,199,320r0,227r-528,0r0,106v0,103,40,154,120,154v86,0,124,-60,121,-152r287,0r0,244xm384,-1372r205,0r154,241r-163,0r-99,-156r-97,156r-160,0","w":951},"\u00eb":{"d":"475,-824v-97,0,-128,87,-120,197r241,0v7,-112,-20,-198,-121,-197xm883,-96v-158,101,-406,158,-615,80v-137,-51,-209,-126,-200,-321v9,-196,-32,-442,59,-562v94,-123,374,-169,557,-96v136,54,199,115,199,320r0,227r-528,0r0,106v0,103,40,154,120,154v86,0,124,-60,121,-152r287,0r0,244xm303,-1359v65,0,118,52,118,116v0,64,-53,117,-117,117v-62,0,-117,-54,-117,-117v0,-62,54,-116,116,-116xm652,-1355v66,0,118,52,118,117v0,65,-53,118,-118,118v-61,0,-117,-56,-117,-118v0,-64,53,-117,117,-117","w":951},"\u00ed":{"d":"404,-355v0,80,-6,136,63,149r0,206r-412,0r0,-206v70,-13,63,-67,63,-149r0,-355v-1,-66,-10,-79,-63,-96r0,-205r349,0r0,656xm255,-1374r214,0r-162,243r-130,0","w":521},"\u00ec":{"d":"407,-355v0,80,-6,136,63,149r0,206r-412,0r0,-206v70,-13,63,-67,63,-149r0,-355v-1,-66,-10,-79,-63,-96r0,-205r349,0r0,656xm172,-1131r-161,-243r214,0r78,243r-131,0","w":521},"\u00ee":{"d":"407,-355v0,80,-6,136,63,149r0,206r-412,0r0,-206v70,-13,63,-67,63,-149r0,-355v-1,-66,-10,-79,-63,-96r0,-205r349,0r0,656xm161,-1377r205,0r154,241r-163,0r-99,-156r-97,156r-160,0","w":521},"\u00ef":{"d":"414,-355v0,80,-6,136,63,149r0,206r-412,0r0,-206v70,-13,63,-67,63,-149r0,-355v-1,-66,-10,-79,-63,-96r0,-205r349,0r0,656xm82,-1365v65,0,118,52,118,116v0,64,-53,117,-117,117v-62,0,-117,-54,-117,-117v0,-62,54,-116,116,-116xm431,-1361v66,0,118,52,118,117v0,65,-53,118,-118,118v-61,0,-117,-56,-117,-118v0,-64,53,-117,117,-117","w":521},"\u00f1":{"d":"407,-355v0,80,-6,136,63,149r0,206r-412,0r0,-206v69,-20,63,-56,63,-149r0,-323v-3,-88,0,-105,-63,-128r0,-205r340,0r0,67v91,-54,138,-85,259,-86v199,-2,296,114,296,322r0,406v1,64,14,85,67,96r0,206r-331,0v-41,-177,-22,-422,-22,-638v0,-122,-27,-177,-127,-177v-41,0,-86,18,-133,54r0,406xm392,-1345v36,-2,181,49,214,49v31,0,51,-14,62,-43r127,0v-13,121,-64,182,-152,182v-17,7,-174,-46,-222,-46v-31,0,-50,14,-58,43r-128,0v6,-104,55,-180,157,-185","w":1063},"\u00f3":{"d":"475,-188v92,0,121,-76,121,-178r0,-308v1,-90,-37,-150,-121,-150v-90,0,-120,78,-120,179r0,308v1,99,41,149,120,149xm871,-811v33,121,12,325,12,474v0,120,-13,159,-61,225v-89,123,-371,167,-550,96v-133,-53,-204,-130,-204,-321r0,-338v-8,-258,160,-350,408,-354v201,-3,354,70,395,218xm488,-1374r214,0r-162,243r-130,0","w":951},"\u00f2":{"d":"475,-188v92,0,121,-76,121,-178r0,-308v1,-90,-37,-150,-121,-150v-90,0,-120,78,-120,179r0,308v1,99,41,149,120,149xm871,-811v33,121,12,325,12,474v0,120,-13,159,-61,225v-89,123,-371,167,-550,96v-133,-53,-204,-130,-204,-321r0,-338v-8,-258,160,-350,408,-354v201,-3,354,70,395,218xm418,-1131r-161,-243r214,0r78,243r-131,0","w":951},"\u00f4":{"d":"475,-188v92,0,121,-76,121,-178r0,-308v1,-90,-37,-150,-121,-150v-90,0,-120,78,-120,179r0,308v1,99,41,149,120,149xm871,-811v33,121,12,325,12,474v0,120,-13,159,-61,225v-89,123,-371,167,-550,96v-133,-53,-204,-130,-204,-321r0,-338v-8,-258,160,-350,408,-354v201,-3,354,70,395,218xm396,-1372r205,0r154,241r-163,0r-99,-156r-97,156r-160,0","w":951},"\u00f6":{"d":"475,-188v92,0,121,-76,121,-178r0,-308v1,-90,-37,-150,-121,-150v-90,0,-120,78,-120,179r0,308v1,99,41,149,120,149xm871,-811v33,121,12,325,12,474v0,120,-13,159,-61,225v-89,123,-371,167,-550,96v-133,-53,-204,-130,-204,-321r0,-338v-8,-258,160,-350,408,-354v201,-3,354,70,395,218xm299,-1370v65,0,118,52,118,116v0,64,-53,117,-117,117v-62,0,-117,-54,-117,-117v0,-62,54,-116,116,-116xm648,-1366v66,0,118,52,118,117v0,65,-53,118,-118,118v-61,0,-117,-56,-117,-118v0,-64,53,-117,117,-117","w":951},"\u00f5":{"d":"475,-188v92,0,121,-76,121,-178r0,-308v1,-90,-37,-150,-121,-150v-90,0,-120,78,-120,179r0,308v1,99,41,149,120,149xm871,-811v33,121,12,325,12,474v0,120,-13,159,-61,225v-89,123,-371,167,-550,96v-133,-53,-204,-130,-204,-321r0,-338v-8,-258,160,-350,408,-354v201,-3,354,70,395,218xm373,-1345v36,-2,181,49,214,49v31,0,51,-14,62,-43r127,0v-13,121,-64,182,-152,182v-17,7,-174,-46,-222,-46v-31,0,-50,14,-58,43r-128,0v6,-104,55,-180,157,-185","w":951},"\u00fa":{"d":"656,-657v0,-79,8,-138,-62,-149r0,-205r349,0r0,677v0,83,2,110,62,128r0,206r-340,0r0,-67v-81,57,-168,85,-259,85v-201,-1,-296,-112,-296,-322r0,-407v0,-65,-14,-83,-67,-95r0,-205r331,0v44,171,23,423,23,637v0,124,30,177,126,177v43,0,87,-18,133,-54r0,-406xm517,-1369r214,0r-162,243r-130,0","w":1063},"\u00f9":{"d":"656,-657v0,-79,8,-138,-62,-149r0,-205r349,0r0,677v0,83,2,110,62,128r0,206r-340,0r0,-67v-81,57,-168,85,-259,85v-201,-1,-296,-112,-296,-322r0,-407v0,-65,-14,-83,-67,-95r0,-205r331,0v44,171,23,423,23,637v0,124,30,177,126,177v43,0,87,-18,133,-54r0,-406xm447,-1131r-161,-243r214,0r78,243r-131,0","w":1063},"\u00fb":{"d":"656,-657v0,-79,8,-138,-62,-149r0,-205r349,0r0,677v0,83,2,110,62,128r0,206r-340,0r0,-67v-81,57,-168,85,-259,85v-201,-1,-296,-112,-296,-322r0,-407v0,-65,-14,-83,-67,-95r0,-205r331,0v44,171,23,423,23,637v0,124,30,177,126,177v43,0,87,-18,133,-54r0,-406xm409,-1372r205,0r154,241r-163,0r-99,-156r-97,156r-160,0","w":1063},"\u00fc":{"d":"656,-657v0,-79,8,-138,-62,-149r0,-205r349,0r0,677v0,83,2,110,62,128r0,206r-340,0r0,-67v-81,57,-168,85,-259,85v-201,-1,-296,-112,-296,-322r0,-407v0,-65,-14,-83,-67,-95r0,-205r331,0v44,171,23,423,23,637v0,124,30,177,126,177v43,0,87,-18,133,-54r0,-406xm333,-1370v65,0,118,52,118,116v0,64,-53,117,-117,117v-62,0,-117,-54,-117,-117v0,-62,54,-116,116,-116xm682,-1366v66,0,118,52,118,117v0,65,-53,118,-118,118v-61,0,-117,-56,-117,-118v0,-64,53,-117,117,-117","w":1063},"\u2020":{"d":"82,-1351r0,1337r655,0r0,-1337r-655,0xm751,0r-683,0r0,-1365r683,0r0,1365"},"\u00b0":{"d":"82,-1351r0,1337r655,0r0,-1337r-655,0xm751,0r-683,0r0,-1365r683,0r0,1365"},"\u00a2":{"d":"503,-378v110,1,129,-102,121,-224r268,0r0,318v-69,49,-154,83,-255,100r0,92r-268,0r0,-92v-200,-43,-273,-141,-273,-343r0,-375v2,-183,109,-274,273,-307r0,-91r268,0r0,94v90,16,175,49,255,98r0,282r-268,0v7,-110,-24,-188,-122,-188v-95,0,-120,74,-120,178r0,308v1,89,39,149,121,150","w":988},"\u00a3":{"d":"632,-1396v182,2,296,52,421,128r0,337r-279,0v7,-124,-42,-187,-152,-187v-112,0,-151,69,-151,189r0,115r386,0r0,232r-386,0r0,322r168,0v88,1,128,-47,120,-134r294,0r0,394r-957,0r0,-224v64,-13,72,-53,71,-134r0,-224r-71,0r0,-232r71,0r0,-135v-9,-209,68,-310,192,-384v74,-44,166,-63,273,-63","w":1135},"\u00a7":{"d":"82,-1351r0,1337r655,0r0,-1337r-655,0xm751,0r-683,0r0,-1365r683,0r0,1365"},"\u2022":{"d":"96,-692v0,-127,93,-221,221,-221v128,0,222,93,222,221v0,129,-93,222,-222,222v-128,0,-221,-94,-221,-222","w":634},"\u00b6":{"d":"82,-1351r0,1337r655,0r0,-1337r-655,0xm751,0r-683,0r0,-1365r683,0r0,1365"},"\u00df":{"d":"515,-1173v-91,0,-111,53,-111,180r0,993r-349,0r0,-206v70,-20,62,-55,62,-149r0,-679v2,-129,23,-185,92,-250v71,-67,179,-99,320,-99v253,0,382,100,385,343v2,167,-65,244,-192,281v149,40,193,97,196,282r0,142v11,168,-49,266,-147,314v-55,26,-181,21,-273,21r0,-197v164,21,125,-150,125,-303v0,-106,-27,-145,-125,-152r0,-177v111,-7,127,-54,127,-179v0,-109,-14,-165,-110,-165","w":987},"\u00ae":{"d":"82,-1351r0,1337r655,0r0,-1337r-655,0xm751,0r-683,0r0,-1365r683,0r0,1365"},"\u00a9":{"d":"82,-1351r0,1337r655,0r0,-1337r-655,0xm751,0r-683,0r0,-1365r683,0r0,1365"},"\u2122":{"d":"82,-1351r0,1337r655,0r0,-1337r-655,0xm751,0r-683,0r0,-1365r683,0r0,1365"},"\u00b4":{"d":"215,-1374r214,0r-162,243r-130,0","w":565},"\u00a8":{"d":"253,-1370v65,0,118,52,118,116v0,64,-53,117,-117,117v-62,0,-117,-54,-117,-117v0,-62,54,-116,116,-116xm602,-1366v66,0,118,52,118,117v0,65,-53,118,-118,118v-61,0,-117,-56,-117,-118v0,-64,53,-117,117,-117","w":856},"\u2260":{"d":"82,-1351r0,1337r655,0r0,-1337r-655,0xm751,0r-683,0r0,-1365r683,0r0,1365"},"\u00c6":{"d":"725,-582r0,-523r-214,523r214,0xm654,-224v69,-9,73,-70,71,-152r-297,0v-20,51,-75,136,11,152r0,224r-412,0r0,-224v61,-17,66,-36,91,-98r418,-1043r1067,0r0,421r-296,0v4,-118,-34,-159,-152,-153r-116,0r0,273r362,0r0,233r-362,0r0,323r141,0v122,7,128,-72,127,-188r296,0r0,456r-949,0r0,-224","w":1685},"\u00d8":{"d":"558,-1119v-112,0,-148,76,-148,209r0,477v-10,120,51,187,148,187v107,0,148,-78,148,-209r0,-477v2,-129,-41,-187,-148,-187xm751,-1371r52,-108r226,109r-64,131v46,58,54,156,54,267r0,641v6,203,-106,286,-257,333v-106,33,-289,32,-400,3r-52,107r-226,-110r65,-132v-45,-52,-52,-154,-52,-263r0,-641v-3,-272,192,-358,455,-358v70,0,136,7,199,21","w":1113},"\u221e":{"d":"82,-1351r0,1337r655,0r0,-1337r-655,0xm751,0r-683,0r0,-1365r683,0r0,1365"},"\u00b1":{"d":"82,-1351r0,1337r655,0r0,-1337r-655,0xm751,0r-683,0r0,-1365r683,0r0,1365"},"\u2264":{"d":"82,-1351r0,1337r655,0r0,-1337r-655,0xm751,0r-683,0r0,-1365r683,0r0,1365"},"\u2265":{"d":"82,-1351r0,1337r655,0r0,-1337r-655,0xm751,0r-683,0r0,-1365r683,0r0,1365"},"\u00a5":{"d":"735,-485v8,107,-32,250,72,261r0,224r-456,0r0,-224v102,-10,64,-153,71,-261r-340,0r0,-137r292,0r-52,-107r-240,0r0,-137r173,0v-42,-79,-82,-188,-131,-254v-11,-16,-27,-23,-42,-25r0,-220r403,0v5,120,-11,233,31,321r85,178v35,-77,86,-155,112,-236v8,-67,3,-184,4,-263r358,0r0,224v-42,13,-59,45,-82,91r-92,184r174,0r0,137r-243,0r-54,107r297,0r0,137r-340,0","w":1157},"\u00b5":{"d":"82,-1351r0,1337r655,0r0,-1337r-655,0xm751,0r-683,0r0,-1365r683,0r0,1365"},"\u2202":{"d":"82,-1351r0,1337r655,0r0,-1337r-655,0xm751,0r-683,0r0,-1365r683,0r0,1365"},"\u03a3":{"d":"82,-1351r0,1337r655,0r0,-1337r-655,0xm751,0r-683,0r0,-1365r683,0r0,1365"},"\u220f":{"d":"82,-1351r0,1337r655,0r0,-1337r-655,0xm751,0r-683,0r0,-1365r683,0r0,1365"},"\u03c0":{"d":"82,-1351r0,1337r655,0r0,-1337r-655,0xm751,0r-683,0r0,-1365r683,0r0,1365"},"\u222b":{"d":"82,-1351r0,1337r655,0r0,-1337r-655,0xm751,0r-683,0r0,-1365r683,0r0,1365"},"\u00aa":{"d":"82,-1351r0,1337r655,0r0,-1337r-655,0xm751,0r-683,0r0,-1365r683,0r0,1365"},"\u00ba":{"d":"82,-1351r0,1337r655,0r0,-1337r-655,0xm751,0r-683,0r0,-1365r683,0r0,1365"},"\u03a9":{"d":"82,-1351r0,1337r655,0r0,-1337r-655,0xm751,0r-683,0r0,-1365r683,0r0,1365"},"\u00e6":{"d":"998,-824v-98,0,-129,87,-121,197r242,0v7,-112,-20,-198,-121,-197xm388,-353v-52,49,-18,144,51,143v43,0,95,-29,155,-87r0,-171v-63,33,-164,75,-206,115xm521,-1037v109,0,162,18,235,59v115,-65,322,-68,454,-19v114,43,195,105,195,251r0,301r-526,0r0,134v-1,69,52,121,120,121v79,0,120,-50,122,-149r284,0r0,246v-141,73,-220,109,-405,109v-170,0,-269,-41,-356,-130v-99,76,-176,130,-319,130v-171,0,-269,-106,-269,-278v0,-107,42,-189,128,-241v121,-72,247,-103,410,-167v6,-99,-21,-167,-105,-167v-74,0,-103,60,-97,153r-287,0r0,-245v148,-67,237,-108,416,-108","w":1474},"\u00f8":{"d":"475,-188v92,0,121,-76,121,-178r0,-308v1,-90,-37,-150,-121,-150v-90,0,-120,78,-120,179r0,308v1,99,41,149,120,149xm871,-202v-45,187,-306,253,-542,204r-36,66r-190,-101r36,-68v-57,-66,-71,-113,-71,-236r0,-338v-20,-309,266,-391,559,-337r37,-68r190,98r-40,74v55,64,69,114,69,233v0,151,18,349,-12,473","w":951},"\u00bf":{"d":"807,-1235v2,85,-72,156,-157,156v-83,0,-156,-73,-156,-156v0,-85,71,-160,156,-157v91,2,154,66,157,157xm534,-233v113,-6,151,-68,145,-201r298,0r0,318v-123,89,-269,134,-436,134v-306,0,-459,-128,-459,-383v0,-303,227,-341,382,-480v30,-27,35,-48,35,-108r303,0v1,83,0,199,-25,237v-54,82,-161,136,-240,196v-58,44,-99,72,-116,93v-68,82,5,200,113,194","w":1086},"\u00a1":{"d":"471,-1226v3,85,-72,156,-156,156v-84,0,-157,-73,-157,-156v0,-85,71,-160,157,-157v90,3,154,67,156,157xm137,-144v0,-20,8,-77,12,-115r90,-690r152,0r102,806v1,95,-79,161,-179,161v-97,0,-177,-70,-177,-162","w":629},"\u00ac":{"d":"82,-1351r0,1337r655,0r0,-1337r-655,0xm751,0r-683,0r0,-1365r683,0r0,1365"},"\u221a":{"d":"82,-1351r0,1337r655,0r0,-1337r-655,0xm751,0r-683,0r0,-1365r683,0r0,1365"},"\u0192":{"d":"76,-10v115,17,151,-41,169,-144r100,-568r-89,0r37,-214r90,0r28,-160v29,-222,113,-351,345,-351v65,0,121,12,167,36r-35,202v-100,-11,-147,21,-163,111r-29,162r143,0r-37,214r-144,0r-105,599v-34,185,-57,245,-178,313v-89,50,-249,49,-334,1","w":964},"\u2248":{"d":"82,-1351r0,1337r655,0r0,-1337r-655,0xm751,0r-683,0r0,-1365r683,0r0,1365"},"\u2206":{"d":"82,-1351r0,1337r655,0r0,-1337r-655,0xm751,0r-683,0r0,-1365r683,0r0,1365"},"\u00ab":{"d":"413,-255r-107,-269r107,-268r161,0r-107,268r107,269r-161,0xm203,-255r-107,-269r107,-268r161,0r-107,268r107,269r-161,0","w":670},"\u00bb":{"d":"364,-524r-107,269r-161,0r107,-269r-107,-268r161,0xm574,-524r-107,269r-161,0r107,-269r-107,-268r161,0","w":670},"\u2026":{"d":"1559,-130v0,-78,68,-148,147,-148v81,0,148,66,148,148v0,79,-68,148,-148,148v-77,0,-147,-71,-147,-148xm876,-130v0,-79,68,-148,148,-148v80,0,147,67,147,148v0,78,-68,148,-147,148v-78,0,-148,-70,-148,-148xm194,-130v0,-78,68,-148,147,-148v81,0,148,66,148,148v0,79,-68,148,-148,148v-77,0,-147,-71,-147,-148","w":2048},"\u00a0":{"w":437},"\u00c0":{"d":"422,-582r185,0r-96,-447xm305,-1365r470,0r208,1020v19,76,21,99,78,121r0,224r-465,0r0,-224v96,2,68,-94,53,-161r-264,0v-14,67,-43,165,58,161r0,224r-416,0r0,-224v59,-20,64,-53,79,-129xm477,-1493r-161,-243r214,0r78,243r-131,0","w":1088},"\u00c3":{"d":"422,-582r185,0r-96,-447xm305,-1365r470,0r208,1020v19,76,21,99,78,121r0,224r-465,0r0,-224v96,2,68,-94,53,-161r-264,0v-14,67,-43,165,58,161r0,224r-416,0r0,-224v59,-20,64,-53,79,-129xm421,-1709v36,-2,181,49,214,49v31,0,51,-14,62,-43r127,0v-13,121,-64,182,-152,182v-17,7,-174,-46,-222,-46v-31,0,-50,14,-58,43r-128,0v6,-104,55,-180,157,-185","w":1088},"\u00d5":{"d":"557,-1119v-104,0,-148,63,-148,182r0,504v-9,122,51,187,148,187v96,0,147,-60,147,-182r0,-504v10,-123,-46,-187,-147,-187xm1017,-1034r0,703v5,203,-105,288,-256,334v-58,17,-126,24,-204,24v-218,0,-374,-63,-437,-208v-17,-40,-24,-90,-24,-150r0,-703v-6,-205,107,-290,259,-335v57,-17,125,-23,202,-23v217,0,371,62,436,204v18,39,24,91,24,154xm434,-1709v36,-2,181,49,214,49v31,0,51,-14,62,-43r127,0v-13,121,-64,182,-152,182v-17,7,-174,-46,-222,-46v-31,0,-50,14,-58,43r-128,0v6,-104,55,-180,157,-185","w":1113},"\u0152":{"d":"409,-449v-10,140,53,190,197,181r85,0r0,-829r-116,0v-123,-2,-166,53,-166,181r0,467xm1146,-268v121,7,128,-71,127,-188r295,0r0,456r-1029,0v-205,4,-321,-60,-394,-183v-46,-78,-50,-175,-49,-303r0,-435v-5,-236,82,-364,251,-422v55,-19,146,-22,234,-22r987,0r0,421r-295,0v4,-118,-35,-153,-152,-153r-117,0r0,273r363,0r0,233r-363,0r0,323r142,0","w":1650},"\u0153":{"d":"1004,-824v-107,0,-126,83,-121,197r241,0v4,-115,-10,-197,-120,-197xm476,-188v102,1,120,-68,120,-178r0,-308v0,-96,-29,-149,-120,-150v-100,0,-121,70,-121,179r0,308v0,95,31,147,121,149xm1013,-1029v243,0,421,88,398,354r0,227r-528,0r0,110v0,98,30,148,120,150v84,1,123,-53,121,-152r287,0r0,248v-161,106,-472,156,-671,53v-74,38,-162,57,-264,57v-261,0,-408,-91,-408,-355r0,-389v0,-232,172,-303,398,-303v107,0,199,20,274,61v75,-41,166,-61,273,-61","w":1479},"\u2013":{"d":"96,-631r984,0r0,197r-984,0r0,-197","w":1176},"\u2014":{"d":"96,-631r2047,0r0,197r-2047,0r0,-197","w":2239},"\u201c":{"d":"244,-987v-143,0,-159,-189,-81,-287v35,-44,76,-85,133,-118r43,58v-44,32,-73,65,-86,99v66,4,118,50,118,118v0,71,-56,130,-127,130xm568,-987v-143,0,-159,-189,-81,-287v35,-44,76,-85,133,-118r43,58v-43,33,-72,66,-86,99v66,4,118,50,118,118v0,71,-56,130,-127,130","w":811,"k":{"A":123}},"\u201d":{"d":"567,-1392v144,-2,157,187,80,285v-35,44,-76,87,-133,120r-42,-58v43,-33,72,-66,86,-99v-66,-5,-119,-51,-119,-118v0,-76,52,-128,128,-130xm243,-1392v144,-2,157,187,80,285v-35,44,-76,87,-133,120r-43,-58v44,-33,73,-66,87,-99v-66,-5,-119,-51,-119,-118v0,-76,52,-128,128,-130","w":811},"\u2018":{"d":"244,-987v-143,0,-159,-189,-81,-287v35,-44,76,-85,133,-118r43,58v-44,32,-73,65,-86,99v66,4,118,50,118,118v0,71,-56,130,-127,130","w":486,"k":{"A":123}},"\u2019":{"d":"243,-1392v144,-2,157,187,80,285v-35,44,-76,87,-133,120r-43,-58v44,-33,73,-66,87,-99v-66,-5,-119,-51,-119,-118v0,-76,52,-128,128,-130","w":486,"k":{"t":41,"s":61}},"\u00f7":{"d":"82,-1351r0,1337r655,0r0,-1337r-655,0xm751,0r-683,0r0,-1365r683,0r0,1365"},"\u25ca":{"d":"82,-1351r0,1337r655,0r0,-1337r-655,0xm751,0r-683,0r0,-1365r683,0r0,1365"},"\u00ff":{"d":"546,-1011r372,0r0,205v-49,22,-53,40,-71,105r-191,684v-61,207,-120,367,-364,371v-28,0,-61,-3,-99,-9r0,-220v79,2,110,-30,136,-90r-252,-755v-17,-51,-23,-69,-63,-86r0,-205r398,0r0,205v-49,13,-45,47,-32,96r102,386r98,-396v10,-40,3,-73,-34,-86r0,-205xm297,-1370v65,0,118,52,118,116v0,64,-53,117,-117,117v-62,0,-117,-54,-117,-117v0,-62,54,-116,116,-116xm646,-1366v66,0,118,52,118,117v0,65,-53,118,-118,118v-61,0,-117,-56,-117,-118v0,-64,53,-117,117,-117","w":931},"\u0178":{"d":"681,-363v0,80,4,126,71,139r0,224r-456,0r0,-224v63,-13,71,-53,71,-132r0,-168r-255,-523v-25,-52,-37,-84,-85,-98r0,-220r408,0v7,120,-18,230,26,321r88,183v35,-78,87,-160,114,-242v8,-67,3,-183,4,-262r354,0r0,224v-50,13,-64,56,-90,107r-250,497r0,174xm349,-1732v65,0,118,52,118,116v0,64,-53,117,-117,117v-62,0,-117,-54,-117,-117v0,-62,54,-116,116,-116xm698,-1728v66,0,118,52,118,117v0,65,-53,118,-118,118v-61,0,-117,-56,-117,-118v0,-64,53,-117,117,-117","w":1048},"\u2215":{"d":"82,-1351r0,1337r655,0r0,-1337r-655,0xm751,0r-683,0r0,-1365r683,0r0,1365"},"\u00a4":{"d":"82,-1351r0,1337r655,0r0,-1337r-655,0xm751,0r-683,0r0,-1365r683,0r0,1365"},"\u2039":{"d":"203,-255r-107,-269r107,-268r161,0r-107,268r107,269r-161,0","w":460},"\u203a":{"d":"364,-524r-107,269r-161,0r107,-269r-107,-268r161,0","w":460},"\uf001":{"d":"82,-1351r0,1337r655,0r0,-1337r-655,0xm751,0r-683,0r0,-1365r683,0r0,1365"},"\uf002":{"d":"82,-1351r0,1337r655,0r0,-1337r-655,0xm751,0r-683,0r0,-1365r683,0r0,1365"},"\u2021":{"d":"82,-1351r0,1337r655,0r0,-1337r-655,0xm751,0r-683,0r0,-1365r683,0r0,1365"},"\u00b7":{"d":"96,-696v0,-79,69,-148,147,-148v81,0,148,67,148,148v0,80,-69,148,-148,148v-76,0,-147,-72,-147,-148","w":486},"\u2219":{"d":"96,-696v0,-79,69,-148,147,-148v81,0,148,67,148,148v0,80,-69,148,-148,148v-76,0,-147,-72,-147,-148","w":486},"\u201a":{"d":"82,-1351r0,1337r655,0r0,-1337r-655,0xm751,0r-683,0r0,-1365r683,0r0,1365"},"\u201e":{"d":"567,-255v144,-2,157,185,80,285v-34,44,-76,86,-133,119r-42,-58v41,-30,66,-53,86,-98v-66,-5,-119,-51,-119,-118v0,-76,52,-129,128,-130xm243,-255v144,-2,157,185,80,285v-34,44,-76,86,-133,119r-43,-58v44,-31,73,-63,87,-98v-66,-5,-119,-51,-119,-118v0,-76,52,-129,128,-130","w":811},"\u2030":{"d":"1740,-110v130,1,84,-189,84,-315v0,-77,-14,-119,-84,-119v-127,0,-83,189,-83,315v0,73,16,118,83,119xm1995,-580v54,64,36,307,30,415v-2,33,-11,58,-21,75v-39,67,-127,101,-264,101v-137,0,-229,-32,-263,-102v-45,-91,-39,-324,-12,-440v24,-104,120,-134,275,-134v124,0,208,29,255,85xm1095,-110v127,0,83,-189,83,-315v0,-73,-16,-119,-83,-119v-127,0,-84,189,-84,315v0,75,17,119,84,119xm1349,-580v53,63,36,307,30,415v-2,33,-11,58,-21,75v-39,67,-127,101,-263,101v-166,0,-274,-36,-285,-184v-8,-114,-23,-334,32,-407v43,-57,127,-85,253,-85v123,0,207,29,254,85xm359,-822v127,0,83,-189,83,-314v0,-76,-15,-119,-83,-119v-127,0,-84,189,-84,315v0,75,17,118,84,118xm613,-1291v53,64,36,307,30,415v-2,33,-11,58,-21,75v-39,67,-127,101,-263,101v-167,0,-272,-36,-285,-184v-10,-114,-22,-335,32,-408v42,-56,126,-84,253,-84v125,0,208,29,254,85xm446,0r-215,0r779,-1365r215,0","w":2099},"\u00c2":{"d":"422,-582r185,0r-96,-447xm305,-1365r470,0r208,1020v19,76,21,99,78,121r0,224r-465,0r0,-224v96,2,68,-94,53,-161r-264,0v-14,67,-43,165,58,161r0,224r-416,0r0,-224v59,-20,64,-53,79,-129xm443,-1736r205,0r154,241r-163,0r-99,-156r-97,156r-160,0","w":1088},"\u00ca":{"d":"613,-268v121,7,128,-71,127,-188r295,0r0,456r-967,0r0,-224v62,-13,72,-55,72,-134r0,-675v0,-69,-18,-94,-72,-108r0,-224r967,0r0,421r-295,0v4,-118,-34,-153,-152,-153r-135,0r0,273r381,0r0,233r-381,0r0,323r160,0xm444,-1736r205,0r154,241r-163,0r-99,-156r-97,156r-160,0","w":1117},"\u00c1":{"d":"422,-582r185,0r-96,-447xm305,-1365r470,0r208,1020v19,76,21,99,78,121r0,224r-465,0r0,-224v96,2,68,-94,53,-161r-264,0v-14,67,-43,165,58,161r0,224r-416,0r0,-224v59,-20,64,-53,79,-129xm536,-1736r214,0r-162,243r-130,0","w":1088},"\u00cb":{"d":"613,-268v121,7,128,-71,127,-188r295,0r0,456r-967,0r0,-224v62,-13,72,-55,72,-134r0,-675v0,-69,-18,-94,-72,-108r0,-224r967,0r0,421r-295,0v4,-118,-34,-153,-152,-153r-135,0r0,273r381,0r0,233r-381,0r0,323r160,0xm372,-1732v65,0,118,52,118,116v0,64,-53,117,-117,117v-62,0,-117,-54,-117,-117v0,-62,54,-116,116,-116xm721,-1728v66,0,118,52,118,117v0,65,-53,118,-118,118v-61,0,-117,-56,-117,-118v0,-64,53,-117,117,-117","w":1117},"\u00c8":{"d":"613,-268v121,7,128,-71,127,-188r295,0r0,456r-967,0r0,-224v62,-13,72,-55,72,-134r0,-675v0,-69,-18,-94,-72,-108r0,-224r967,0r0,421r-295,0v4,-118,-34,-153,-152,-153r-135,0r0,273r381,0r0,233r-381,0r0,323r160,0xm497,-1493r-161,-243r214,0r78,243r-131,0","w":1117},"\u00cd":{"d":"453,-358v0,79,5,121,72,134r0,224r-457,0r0,-224v62,-13,72,-55,72,-134r0,-675v0,-69,-18,-94,-72,-108r0,-224r457,0r0,224v-62,11,-72,57,-72,134r0,649xm310,-1736r214,0r-162,243r-130,0","w":593},"\u00ce":{"d":"452,-358v0,79,5,121,72,134r0,224r-457,0r0,-224v62,-13,72,-55,72,-134r0,-675v0,-69,-18,-94,-72,-108r0,-224r457,0r0,224v-62,11,-72,57,-72,134r0,649xm197,-1736r205,0r154,241r-163,0r-99,-156r-97,156r-160,0","w":593},"\u00cf":{"d":"452,-358v0,79,5,121,72,134r0,224r-457,0r0,-224v62,-13,72,-55,72,-134r0,-675v0,-69,-18,-94,-72,-108r0,-224r457,0r0,224v-62,11,-72,57,-72,134r0,649xm121,-1732v65,0,118,52,118,116v0,64,-53,117,-117,117v-62,0,-117,-54,-117,-117v0,-62,54,-116,116,-116xm470,-1728v66,0,118,52,118,117v0,65,-53,118,-118,118v-61,0,-117,-56,-117,-118v0,-64,53,-117,117,-117","w":593},"\u00cc":{"d":"453,-358v0,79,5,121,72,134r0,224r-457,0r0,-224v62,-13,72,-55,72,-134r0,-675v0,-69,-18,-94,-72,-108r0,-224r457,0r0,224v-62,11,-72,57,-72,134r0,649xm230,-1488r-161,-243r214,0r78,243r-131,0","w":593},"\u00d3":{"d":"557,-1119v-104,0,-148,63,-148,182r0,504v-9,122,51,187,148,187v96,0,147,-60,147,-182r0,-504v10,-123,-46,-187,-147,-187xm1017,-1034r0,703v5,203,-105,288,-256,334v-58,17,-126,24,-204,24v-218,0,-374,-63,-437,-208v-17,-40,-24,-90,-24,-150r0,-703v-6,-205,107,-290,259,-335v57,-17,125,-23,202,-23v217,0,371,62,436,204v18,39,24,91,24,154xm565,-1736r214,0r-162,243r-130,0","w":1113},"\u00d4":{"d":"557,-1119v-104,0,-148,63,-148,182r0,504v-9,122,51,187,148,187v96,0,147,-60,147,-182r0,-504v10,-123,-46,-187,-147,-187xm1017,-1034r0,703v5,203,-105,288,-256,334v-58,17,-126,24,-204,24v-218,0,-374,-63,-437,-208v-17,-40,-24,-90,-24,-150r0,-703v-6,-205,107,-290,259,-335v57,-17,125,-23,202,-23v217,0,371,62,436,204v18,39,24,91,24,154xm459,-1736r205,0r154,241r-163,0r-99,-156r-97,156r-160,0","w":1113},"\uf000":{"d":"82,-1351r0,1337r655,0r0,-1337r-655,0xm751,0r-683,0r0,-1365r683,0r0,1365"},"\u00d2":{"d":"557,-1119v-104,0,-148,63,-148,182r0,504v-9,122,51,187,148,187v96,0,147,-60,147,-182r0,-504v10,-123,-46,-187,-147,-187xm1017,-1034r0,703v5,203,-105,288,-256,334v-58,17,-126,24,-204,24v-218,0,-374,-63,-437,-208v-17,-40,-24,-90,-24,-150r0,-703v-6,-205,107,-290,259,-335v57,-17,125,-23,202,-23v217,0,371,62,436,204v18,39,24,91,24,154xm482,-1493r-161,-243r214,0r78,243r-131,0","w":1113},"\u00da":{"d":"126,-1007v2,-77,-7,-123,-71,-134r0,-224r456,0r0,224v-64,12,-71,55,-71,134r0,572v-8,116,50,178,147,180v104,2,148,-69,148,-194r0,-582v0,-72,-16,-97,-72,-110r0,-224r416,0r0,224v-63,12,-71,58,-71,134r0,570v9,233,-54,335,-201,408v-67,33,-146,47,-235,47v-265,2,-445,-131,-446,-385r0,-640xm574,-1736r214,0r-162,243r-130,0","w":1134},"\u00db":{"d":"126,-1007v2,-77,-7,-123,-71,-134r0,-224r456,0r0,224v-64,12,-71,55,-71,134r0,572v-8,116,50,178,147,180v104,2,148,-69,148,-194r0,-582v0,-72,-16,-97,-72,-110r0,-224r416,0r0,224v-63,12,-71,58,-71,134r0,570v9,233,-54,335,-201,408v-67,33,-146,47,-235,47v-265,2,-445,-131,-446,-385r0,-640xm471,-1736r205,0r154,241r-163,0r-99,-156r-97,156r-160,0","w":1134},"\u00d9":{"d":"126,-1007v2,-77,-7,-123,-71,-134r0,-224r456,0r0,224v-64,12,-71,55,-71,134r0,572v-8,116,50,178,147,180v104,2,148,-69,148,-194r0,-582v0,-72,-16,-97,-72,-110r0,-224r416,0r0,224v-63,12,-71,58,-71,134r0,570v9,233,-54,335,-201,408v-67,33,-146,47,-235,47v-265,2,-445,-131,-446,-385r0,-640xm526,-1493r-161,-243r214,0r78,243r-131,0","w":1134},"\u0131":{"d":"407,-355v0,80,-6,136,63,149r0,206r-412,0r0,-206v70,-13,63,-67,63,-149r0,-355v-1,-66,-10,-79,-63,-96r0,-205r349,0r0,656","w":521},"\u02c6":{"d":"297,-1372r205,0r154,241r-163,0r-99,-156r-97,156r-160,0","w":793},"\u02dc":{"d":"294,-1345v36,-2,181,49,214,49v31,0,51,-14,62,-43r127,0v-13,121,-64,182,-152,182v-17,7,-174,-46,-222,-46v-31,0,-50,14,-58,43r-128,0v6,-104,55,-180,157,-185","w":833},"\u00af":{"d":"82,-1351r0,1337r655,0r0,-1337r-655,0xm751,0r-683,0r0,-1365r683,0r0,1365"},"\u02d8":{"d":"82,-1351r0,1337r655,0r0,-1337r-655,0xm751,0r-683,0r0,-1365r683,0r0,1365"},"\u02d9":{"d":"82,-1351r0,1337r655,0r0,-1337r-655,0xm751,0r-683,0r0,-1365r683,0r0,1365"},"\u02da":{"d":"305,-1182v36,0,70,-34,70,-70v0,-36,-32,-71,-70,-71v-37,0,-69,35,-69,70v0,36,32,71,69,71xm305,-1422v100,0,168,70,170,170v2,93,-77,169,-170,169v-88,0,-171,-81,-168,-170v4,-98,67,-169,168,-169","w":611},"\u00b8":{"d":"82,-1351r0,1337r655,0r0,-1337r-655,0xm751,0r-683,0r0,-1365r683,0r0,1365"},"\u02ba":{"d":"82,-1351r0,1337r655,0r0,-1337r-655,0xm751,0r-683,0r0,-1365r683,0r0,1365"},"\u02db":{"d":"82,-1351r0,1337r655,0r0,-1337r-655,0xm751,0r-683,0r0,-1365r683,0r0,1365"},"\u02c7":{"d":"82,-1351r0,1337r655,0r0,-1337r-655,0xm751,0r-683,0r0,-1365r683,0r0,1365"}}});
