/*!
 * The following copyright notice may not be removed under any circumstances.
 * 
 * Copyright:
 * © Dutch Design: Albert-Jan Pool, 1995. Published by FontShop International
 * FontFont release 15
 */
Cufon.registerFont({"w":543,"face":{"font-family":"DIN","font-weight":700,"font-stretch":"normal","units-per-em":"1000","panose-1":"2 0 8 3 0 0 0 0 0 0","ascent":"803","descent":"-197","x-height":"6","bbox":"-23 -806 977 197","underline-thickness":"87","underline-position":"-135","stemh":"117.000","stemv":"131.000","unicode-range":"U+0020-U+007E"},"glyphs":{" ":{"w":232},"!":{"d":"272,-712r-31,489r-98,0r-31,-489r160,0xm261,0r-138,0r0,-133r138,0r0,133","w":347},"\"":{"d":"395,-501r-121,0r0,-211r121,0r0,211xm190,-501r-122,0r0,-211r122,0r0,211","w":464},"#":{"d":"643,-420r-89,0r-16,108r69,0r0,122r-89,0r-30,190r-137,0r31,-190r-116,0r-30,190r-137,0r30,-190r-69,0r0,-122r89,0r16,-108r-70,0r0,-121r89,0r28,-177r137,0r-28,177r116,0r28,-177r136,0r-27,177r69,0r0,121xm417,-420r-115,0r-17,108r116,0","w":691},"$":{"d":"571,-210v0,122,-90,197,-215,212r0,112r-101,0r0,-108v-96,-3,-171,-28,-236,-94r90,-90v42,42,99,58,159,60r0,-181v-132,-11,-221,-67,-221,-203v0,-115,78,-200,208,-214r0,-90r101,0r0,89v81,5,143,30,197,82r-88,87v-33,-32,-82,-45,-123,-48r0,174v141,13,229,69,229,212xm268,-428r0,-167v-79,9,-114,86,-66,139v15,16,38,24,66,28xm342,-120v87,-2,120,-91,71,-146v-18,-21,-45,-22,-71,-26r0,172","w":619},"%":{"d":"796,-131v0,90,-67,137,-145,137v-79,0,-145,-47,-145,-137r0,-99v0,-90,66,-137,145,-137v78,0,145,47,145,137r0,99xm644,-712r-337,712r-102,0r337,-712r102,0xm342,-482v0,90,-67,137,-145,137v-79,0,-145,-47,-145,-137r0,-99v0,-90,66,-137,145,-137v78,0,145,47,145,137r0,99xm651,-78v65,0,50,-86,51,-148v0,-38,-19,-57,-51,-57v-67,0,-51,86,-51,148v0,38,18,57,51,57xm197,-429v65,0,50,-86,51,-148v0,-38,-19,-57,-51,-57v-67,0,-51,86,-51,148v0,38,19,57,51,57","w":848},"&":{"d":"489,-550v0,83,-60,115,-124,161r120,142v23,-31,34,-74,36,-125r123,0v-5,92,-26,165,-76,221r128,151r-165,0r-52,-62v-33,26,-82,68,-184,68v-157,0,-235,-82,-235,-216v0,-91,66,-150,128,-191v-29,-33,-71,-83,-71,-151v0,-97,71,-166,190,-166v112,0,182,71,182,168xm295,-469v35,-23,71,-40,71,-80v0,-33,-22,-58,-59,-58v-39,0,-59,25,-59,58v0,26,22,51,47,80xm400,-154r-142,-167v-43,30,-72,58,-72,109v-1,107,150,130,214,58","w":721},"'":{"d":"191,-501r-123,0r0,-211r123,0r0,211","w":259},"(":{"d":"210,-144v-2,86,31,110,71,151r-87,87v-58,-54,-114,-123,-114,-232r0,-436v0,-44,3,-89,26,-129v23,-39,55,-70,88,-103r87,87v-40,41,-71,65,-71,151r0,424","w":336},")":{"d":"142,-806v58,54,114,123,114,232r0,436v0,44,-3,89,-26,129v-23,39,-55,70,-88,103r-88,-88v40,-41,71,-64,71,-150r0,-424v2,-86,-31,-109,-71,-150","w":336},"*":{"d":"440,-460r-46,79r-105,-66r4,125r-92,0r5,-125r-106,66r-45,-79r110,-58r-110,-58r45,-80r106,67r-5,-125r92,0r-4,125r105,-67r46,80r-111,58","w":494},"+":{"d":"493,-216r-160,0r0,160r-122,0r0,-160r-161,0r0,-122r161,0r0,-160r122,0r0,160r160,0r0,122"},",":{"d":"211,55r-143,110r0,-307r143,0r0,197","w":279},"-":{"d":"367,-225r-308,0r0,-121r308,0r0,121","w":426},".":{"d":"217,0r-149,0r0,-148r149,0r0,148","w":285},"\/":{"d":"407,-786r-285,860r-122,0r285,-860r122,0","w":403},"0":{"d":"488,-206v0,136,-100,212,-216,212v-116,0,-217,-76,-217,-212r0,-300v0,-136,101,-212,217,-212v116,0,216,76,216,212r0,300xm358,-207r0,-297v0,-60,-35,-97,-86,-97v-51,0,-87,37,-87,97r0,297v0,60,36,96,87,96v51,0,86,-36,86,-96"},"1":{"d":"378,0r-130,0r0,-572r-145,126r0,-140r145,-126r130,0r0,712"},"2":{"d":"492,0r-433,0r0,-117r266,-309v62,-57,47,-176,-49,-175v-43,0,-87,22,-87,91r-130,0v0,-130,95,-208,217,-208v126,0,216,79,216,207v0,69,-27,106,-76,163r-199,231r275,0r0,117"},"3":{"d":"495,-206v0,142,-104,212,-226,212v-116,0,-225,-61,-227,-210r130,0v2,64,46,93,97,93v56,0,96,-35,96,-99v0,-65,-44,-104,-119,-98r0,-113v72,6,109,-33,109,-89v0,-60,-40,-91,-87,-91v-49,0,-85,32,-88,86r-130,0v3,-127,98,-203,218,-203v126,0,217,84,217,204v0,77,-35,121,-82,146v51,27,92,76,92,162"},"4":{"d":"512,-101r-65,0r0,101r-125,0r0,-101r-291,0r0,-123r244,-488r142,0r-244,488r149,0r0,-133r125,0r0,133r65,0r0,123"},"5":{"d":"297,-478v140,0,197,124,197,238v0,143,-66,244,-220,246v-142,3,-213,-92,-217,-205r130,0v7,56,33,88,87,88v68,1,90,-56,90,-129v0,-82,-24,-128,-87,-128v-53,0,-77,30,-86,58r-119,0r0,-402r406,0r0,117r-288,0r0,153v19,-18,59,-36,107,-36"},"6":{"d":"492,-216v0,140,-96,222,-222,222v-126,0,-222,-79,-222,-220v0,-65,28,-125,60,-190r150,-308r142,0r-148,294v129,-38,240,52,240,202xm362,-215v0,-63,-37,-104,-92,-104v-53,0,-92,38,-92,104v0,66,39,104,92,104v53,0,92,-38,92,-104"},"7":{"d":"503,-595r-231,595r-141,0r231,-595r-188,0r0,112r-124,0r0,-229r453,0r0,117"},"8":{"d":"500,-207v0,138,-102,213,-228,213v-126,0,-228,-75,-228,-213v0,-87,50,-134,89,-160v-36,-25,-80,-72,-80,-148v0,-126,100,-203,219,-203v119,0,218,77,218,203v0,76,-44,123,-80,148v39,26,90,73,90,160xm360,-511v0,-51,-37,-90,-88,-90v-51,0,-89,39,-89,90v0,52,38,90,89,90v51,0,88,-38,88,-90xm370,-209v0,-55,-43,-99,-98,-99v-55,0,-98,44,-98,99v0,55,43,98,98,98v55,0,98,-43,98,-98"},"9":{"d":"495,-498v0,65,-27,125,-59,190r-151,308r-141,0r148,-294v-129,38,-241,-52,-241,-202v0,-140,96,-222,222,-222v126,0,222,79,222,220xm365,-497v0,-66,-39,-104,-92,-104v-53,0,-92,38,-92,104v0,63,37,104,92,104v53,0,92,-38,92,-104"},":":{"d":"241,-271r-148,0r0,-148r148,0r0,148xm241,0r-148,0r0,-148r148,0r0,148","w":309},";":{"d":"241,-271r-148,0r0,-148r148,0r0,148xm238,55r-142,110r0,-307r142,0r0,197","w":309},"<":{"d":"976,-224r-703,0r326,324r-164,0r-385,-385r385,-385r164,0r-326,323r703,0r0,123","w":1027},"=":{"d":"493,-333r-443,0r0,-122r443,0r0,122xm493,-116r-443,0r0,-122r443,0r0,122"},">":{"d":"977,-285r-385,385r-164,0r326,-324r-704,0r0,-123r704,0r-326,-323r164,0","w":1027},"?":{"d":"487,-518v0,99,-79,157,-123,223v-13,20,-20,41,-18,72r-130,0v-15,-146,141,-176,141,-296v0,-47,-31,-82,-81,-82v-53,0,-80,37,-80,83r-130,0v0,-124,94,-200,210,-200v113,0,211,73,211,200xm350,0r-138,0r0,-133r138,0r0,133","w":523},"@":{"d":"451,-716v157,-7,249,88,249,250r0,469r-121,-3r0,-46v-32,35,-65,52,-120,52v-127,0,-173,-89,-173,-237v0,-148,44,-236,172,-236v51,0,88,16,118,49v13,-111,-36,-182,-135,-182r-124,0v-79,-7,-135,57,-135,137r0,289v0,50,11,70,44,99r-90,90v-57,-51,-79,-92,-79,-182r0,-299v-6,-160,89,-257,250,-250r144,0xm576,-231v0,-79,-19,-128,-83,-128v-64,0,-82,49,-82,128v0,79,18,129,82,129v64,0,83,-50,83,-129","w":758},"A":{"d":"633,0r-145,0r-42,-126r-253,0r-43,126r-145,0r259,-712r109,0xm409,-243r-87,-259r-90,259r177,0","w":638},"B":{"d":"599,-205v0,133,-91,205,-218,205r-298,0r0,-712r286,0v139,0,220,78,220,200v0,79,-52,130,-88,147v43,20,98,65,98,160xm450,-506v0,-49,-33,-82,-92,-82r-136,0r0,164r136,0v59,0,92,-33,92,-82xm460,-212v0,-48,-30,-87,-93,-87r-145,0r0,175r145,0v63,0,93,-40,93,-88","w":658},"C":{"d":"583,-219v-25,149,-130,225,-262,225v-78,0,-142,-28,-192,-78v-72,-72,-70,-161,-70,-284v0,-123,-2,-212,70,-284v50,-50,114,-78,192,-78v133,0,237,76,262,225r-141,0v-14,-57,-50,-101,-120,-101v-38,0,-69,14,-89,37v-27,30,-35,64,-35,201v0,137,8,171,35,201v20,23,51,37,89,37v70,0,106,-44,120,-101r141,0","w":620},"D":{"d":"600,-359v0,107,6,209,-72,291v-92,97,-273,61,-445,68r0,-712v171,7,353,-28,445,68v78,82,72,178,72,285xm461,-359v0,-108,-6,-152,-30,-185v-38,-52,-123,-44,-209,-44r0,464v86,0,172,8,209,-44v24,-34,30,-83,30,-191","w":659},"E":{"d":"552,0r-469,0r0,-712r469,0r0,124r-330,0r0,167r281,0r0,124r-281,0r0,173r330,0r0,124","w":605},"F":{"d":"552,-588r-330,0r0,175r281,0r0,124r-281,0r0,289r-139,0r0,-712r469,0r0,124","w":590},"G":{"d":"321,-118v89,0,140,-65,131,-162r-131,0r0,-116r269,0r0,104v13,190,-113,297,-269,298v-78,0,-142,-28,-192,-78v-72,-72,-70,-161,-70,-284v0,-123,-2,-212,70,-284v50,-50,112,-78,192,-78v165,0,249,108,268,228r-140,0v-16,-67,-57,-104,-128,-104v-38,0,-69,15,-89,38v-27,30,-34,63,-34,200v0,137,7,171,34,201v20,23,51,37,89,37","w":648},"H":{"d":"602,0r-139,0r0,-298r-241,0r0,298r-139,0r0,-712r139,0r0,291r241,0r0,-291r139,0r0,712","w":685},"I":{"d":"222,0r-139,0r0,-712r139,0r0,712","w":305},"J":{"d":"437,-234v6,236,-294,312,-434,167r92,-91v23,23,45,40,91,40v68,0,112,-40,112,-122r0,-472r139,0r0,478","w":511},"K":{"d":"659,0r-162,0r-183,-324r-92,110r0,214r-139,0r0,-712r139,0r0,310r251,-310r169,0r-236,283","w":665},"L":{"d":"545,0r-462,0r0,-712r139,0r0,588r323,0r0,124","w":575},"M":{"d":"728,0r-139,0r0,-415r-136,270r-94,0r-137,-270r0,415r-139,0r0,-712r137,0r186,385r185,-385r137,0r0,712","w":811},"N":{"d":"628,0r-124,0r-282,-437r0,437r-139,0r0,-712r124,0r282,436r0,-436r139,0r0,712","w":711},"O":{"d":"585,-356v0,123,-2,209,-71,284v-93,100,-292,100,-385,0v-69,-75,-70,-161,-70,-284v0,-123,1,-209,70,-284v93,-100,292,-101,385,0v69,75,71,161,71,284xm446,-356v0,-137,-10,-168,-35,-200v-38,-48,-141,-48,-179,0v-25,31,-34,63,-34,200v0,137,9,169,34,200v38,48,141,48,179,0v25,-32,35,-63,35,-200","w":644},"P":{"d":"594,-490v0,121,-88,222,-235,222r-137,0r0,268r-139,0r0,-712r276,0v147,0,235,101,235,222xm455,-490v0,-58,-40,-98,-103,-98r-130,0r0,195r130,0v63,0,103,-39,103,-97","w":628},"Q":{"d":"602,-43r-73,73r-63,-63v-101,65,-262,43,-337,-39v-69,-75,-70,-161,-70,-284v0,-123,1,-209,70,-284v93,-100,292,-101,385,0v69,75,71,161,71,284v0,107,1,186,-44,252xm446,-356v0,-137,-10,-168,-35,-200v-38,-48,-141,-48,-179,0v-25,31,-34,63,-34,200v0,137,8,169,34,200v27,32,92,53,136,25r-62,-61r74,-73r53,53v11,-31,13,-72,13,-144","w":643},"R":{"d":"622,0r-161,0r-139,-284r-100,0r0,284r-139,0r0,-712r279,0v145,0,231,99,231,218v0,100,-61,162,-130,187xm454,-494v0,-55,-40,-94,-101,-94r-131,0r0,188r131,0v61,0,101,-39,101,-94","w":654},"S":{"d":"543,-210v0,138,-115,216,-264,216v-108,0,-190,-23,-260,-94r90,-90v45,45,106,60,172,60v113,0,158,-82,104,-148v-24,-29,-99,-30,-149,-37v-116,-18,-189,-75,-189,-199v0,-127,94,-216,248,-216v98,0,169,24,230,83r-88,87v-45,-43,-99,-49,-146,-49v-98,-2,-140,82,-89,141v27,31,98,33,150,40v128,17,191,79,191,206","w":591},"T":{"d":"541,-588r-186,0r0,588r-139,0r0,-588r-186,0r0,-124r511,0r0,124","w":571},"U":{"d":"596,-244v0,151,-116,250,-262,250v-146,0,-262,-99,-262,-250r0,-468r139,0r0,463v0,82,48,131,123,131v75,0,124,-49,124,-131r0,-463r138,0r0,468","w":668},"V":{"d":"578,-712r-236,712r-104,0r-235,-712r144,0r143,464r143,-464r145,0","w":581},"W":{"d":"881,-712r-191,712r-116,0r-131,-432r-131,432r-116,0r-190,-712r145,0r110,449r130,-449r104,0r130,449r111,-449r145,0","w":887},"X":{"d":"598,0r-159,0r-138,-248r-137,248r-159,0r221,-365r-207,-347r158,0r124,230r125,-230r157,0r-207,347","w":603},"Y":{"d":"569,-712r-214,420r0,292r-138,0r0,-292r-214,-420r151,0r133,287r131,-287r151,0","w":572},"Z":{"d":"508,0r-468,0r0,-112r304,-476r-291,0r0,-124r455,0r0,110r-305,478r305,0r0,124","w":548},"[":{"d":"337,74r-257,0r0,-860r257,0r0,117r-127,0r0,626r127,0r0,117","w":378},"\\":{"d":"403,74r-122,0r-281,-847r122,0","w":403},"]":{"d":"299,74r-257,0r0,-116r127,0r0,-628r-127,0r0,-116r257,0r0,860","w":378},"^":{"d":"539,-389r-136,0r-102,-188r-102,188r-136,0r178,-330r120,0","w":602},"_":{"d":"602,178r-602,0r0,-87r602,0r0,87","w":602},"`":{"d":"305,-604r-87,0r-114,-170r137,0","w":500},"a":{"d":"212,5v-109,0,-175,-61,-176,-163v0,-83,57,-151,178,-151r123,0v4,-73,-17,-109,-97,-108v-50,0,-73,12,-100,43r-83,-81v51,-56,101,-72,188,-72v146,0,222,62,222,184r0,343r-127,0r0,-45v-35,35,-68,50,-128,50xm236,-101v72,0,111,-33,101,-119v-74,1,-176,-15,-176,59v0,36,24,60,75,60","w":534},"b":{"d":"509,-261v0,78,-1,168,-53,220v-62,61,-200,68,-257,-8r0,49r-126,0r0,-712r130,0r0,237v57,-73,193,-64,253,-5v52,52,53,141,53,219xm379,-261v0,-85,-10,-149,-88,-149v-78,0,-88,64,-88,149v0,85,10,150,88,150v78,0,88,-65,88,-150","w":560},"c":{"d":"177,-261v0,91,27,150,103,150v34,0,57,-12,84,-41r88,87v-46,48,-100,71,-172,71v-104,0,-233,-56,-233,-267v0,-211,129,-266,233,-266v72,0,126,22,172,70r-88,88v-27,-29,-50,-41,-84,-41v-75,0,-103,59,-103,149","w":480},"d":{"d":"488,0r-127,0r0,-49v-58,76,-195,69,-257,8v-53,-51,-53,-142,-53,-220v0,-78,1,-167,53,-219v60,-60,197,-68,254,5r0,-237r130,0r0,712xm358,-261v0,-85,-11,-149,-89,-149v-78,0,-88,64,-88,149v0,85,10,150,88,150v78,0,89,-65,89,-150","w":561},"e":{"d":"501,-220r-326,0v0,67,41,116,114,116v57,0,85,-16,118,-49r79,77v-53,53,-104,82,-198,82v-123,0,-241,-56,-241,-267v0,-170,92,-266,227,-266v165,0,241,128,227,307xm373,-309v-2,-64,-34,-110,-99,-110v-65,0,-97,46,-99,110r198,0","w":548},"f":{"d":"315,-407r-96,0r0,407r-130,0r0,-407r-54,0r0,-99r54,0v-8,-123,19,-206,152,-214r74,0r0,110v-49,-2,-96,-5,-96,47r0,57r96,0r0,99","w":342},"g":{"d":"51,-275v0,-147,40,-251,178,-252v55,0,91,15,127,55r0,-49r126,0r0,502v0,125,-89,216,-229,216v-80,0,-135,-16,-189,-68r81,-82v29,28,58,40,102,40v100,0,110,-71,105,-161v-34,38,-73,52,-124,52v-137,-1,-177,-107,-177,-253xm352,-275v0,-69,-9,-135,-86,-135v-77,0,-85,66,-85,135v0,69,8,136,85,136v77,0,86,-67,86,-136","w":555},"h":{"d":"502,0r-130,0r0,-318v0,-69,-44,-92,-85,-92v-41,0,-84,24,-84,92r0,318r-130,0r0,-712r130,0r0,239v35,-36,79,-54,125,-54v114,0,174,80,174,190r0,337","w":569},"i":{"d":"204,-610r-133,0r0,-106r133,0r0,106xm203,0r-130,0r0,-521r130,0r0,521","w":275},"j":{"d":"204,-610r-133,0r0,-106r133,0r0,106xm203,46v0,74,-45,149,-152,149r-74,0r0,-110v49,1,96,5,96,-47r0,-559r130,0r0,567","w":275},"k":{"d":"547,0r-161,0r-128,-217r-55,62r0,155r-130,0r0,-712r130,0r0,404r173,-213r157,0r-186,210","w":559},"l":{"d":"294,0r-74,0v-107,0,-152,-75,-152,-149r0,-563r130,0r0,555v-5,51,47,49,96,47r0,110","w":325},"m":{"d":"624,-527v115,0,185,90,185,194r0,333r-130,0r0,-315v0,-71,-45,-95,-86,-95v-40,0,-87,24,-87,92r0,318r-130,0r0,-315v0,-71,-45,-95,-86,-95v-41,0,-87,24,-87,95r0,315r-130,0r0,-521r127,0r0,48v71,-74,210,-73,268,12v44,-46,91,-66,156,-66","w":876},"n":{"d":"330,-527v113,0,176,91,176,194r0,333r-130,0r0,-315v0,-71,-45,-95,-86,-95v-41,0,-87,24,-87,95r0,315r-130,0r0,-521r127,0r0,48v34,-36,82,-54,130,-54","w":573},"o":{"d":"492,-261v0,95,-12,154,-59,203v-32,34,-85,64,-162,64v-77,0,-129,-30,-161,-64v-47,-49,-59,-108,-59,-203v0,-94,12,-153,59,-202v32,-34,84,-64,161,-64v77,0,130,30,162,64v47,49,59,108,59,202xm271,-111v77,0,91,-68,91,-150v0,-82,-14,-149,-91,-149v-76,0,-90,68,-90,149v0,82,13,150,90,150"},"p":{"d":"509,-261v0,78,-1,168,-53,220v-59,59,-196,68,-253,-5r0,237r-130,0r0,-712r126,0r0,49v58,-76,195,-69,257,-8v52,52,53,141,53,219xm379,-261v0,-85,-10,-149,-88,-149v-78,0,-88,64,-88,149v0,85,10,150,88,150v78,0,88,-65,88,-150","w":560},"q":{"d":"488,191r-130,0r0,-237v-58,73,-194,64,-254,5v-52,-52,-53,-142,-53,-220v0,-78,1,-167,53,-219v62,-60,200,-68,257,8r0,-49r127,0r0,712xm358,-261v0,-85,-11,-149,-89,-149v-78,0,-88,64,-88,149v0,85,10,150,88,150v78,0,89,-65,89,-150","w":561},"r":{"d":"454,-478r-98,99v-50,-56,-153,-37,-153,65r0,314r-130,0r0,-521r127,0r0,50v50,-62,193,-82,254,-7","w":455},"s":{"d":"465,-164v0,115,-98,170,-221,170v-82,0,-156,-9,-222,-75r85,-85v43,43,99,49,139,49v45,0,92,-15,92,-54v0,-54,-86,-51,-137,-56v-94,-10,-152,-50,-152,-146v0,-188,288,-209,400,-105r-80,81v-30,-27,-76,-35,-121,-35v-52,0,-74,24,-74,50v0,19,8,41,54,45r82,8v103,10,155,65,155,153","w":501},"t":{"d":"307,0r-71,0v-106,0,-151,-75,-151,-149r0,-258r-55,0r0,-99r55,0r0,-154r130,0r0,154r92,0r0,99r-92,0r0,250v-4,49,44,49,92,47r0,110","w":352},"u":{"d":"243,6v-113,0,-176,-91,-176,-194r0,-333r130,0r0,315v0,71,45,95,86,95v41,0,87,-24,87,-95r0,-315r130,0r0,521r-127,0r0,-48v-34,36,-82,54,-130,54","w":573},"v":{"d":"489,-521r-191,521r-102,0r-192,-521r137,0r106,322r105,-322r137,0","w":493},"w":{"d":"755,-521r-159,521r-107,0r-109,-327r-109,327r-107,0r-160,-521r138,0r84,322r106,-322r95,0r107,322r84,-322r137,0","w":759},"x":{"d":"515,0r-156,0r-96,-156r-95,156r-156,0r180,-266r-173,-255r156,0r88,149r89,-149r156,0r-173,255","w":527},"y":{"d":"490,-521r-223,605v-26,83,-94,117,-202,107r0,-117v53,1,78,1,95,-47r22,-64r-178,-484r137,0r108,322r104,-322r137,0","w":494},"z":{"d":"434,0r-397,0r0,-99r231,-305r-218,0r0,-117r384,0r0,99r-234,305r234,0r0,117","w":478},"{":{"d":"288,-256v0,88,-38,228,73,213r53,0r0,117r-102,0v-102,3,-149,-59,-154,-148v-5,-91,32,-228,-69,-224r-46,0r0,-116v71,4,115,-6,115,-79r0,-145v1,-89,52,-148,154,-148r102,0r0,117r-53,0v-112,-14,-73,125,-73,213v0,72,-43,90,-69,100v26,10,69,28,69,100","w":457},"|":{"d":"240,74r-130,0r0,-860r130,0r0,860","w":350},"}":{"d":"299,-638v5,91,-32,228,69,224r46,0r0,116v-71,-4,-115,6,-115,79r0,145v-1,89,-52,148,-154,148r-102,0r0,-117r53,0v112,14,73,-125,73,-213v0,-72,43,-90,69,-100v-26,-10,-69,-28,-69,-100v0,-88,38,-228,-73,-213r-53,0r0,-117r102,0v102,-3,149,59,154,148","w":457},"~":{"d":"201,-379v101,0,194,124,285,16r83,82v-62,62,-104,86,-165,86v-101,0,-195,-124,-285,-16r-82,-82v62,-62,103,-86,164,-86","w":606},"\u00a0":{"w":232}}});
